<?xml version="1.0"?>
<opencv_storage>
<opencv_ml_svm>
  <format>3</format>
  <svmType>C_SVC</svmType>
  <kernel>
    <type>LINEAR</type></kernel>
  <C>2.6699999999999999</C>
  <term_criteria><epsilon>1.1920928955078125e-07</epsilon>
    <iterations>1000</iterations></term_criteria>
  <var_count>3780</var_count>
  <class_count>2</class_count>
  <class_labels type_id="opencv-matrix">
    <rows>2</rows>
    <cols>1</cols>
    <dt>i</dt>
    <data>
      -1 1</data></class_labels>
  <sv_total>1</sv_total>
  <support_vectors>
    <_>
      0. 0. 0. 0. 0. 0. 0. 0. 0. 0. 0. 0. 0. 0. 0. 0. 0. 0. 0. 0. 0. 0.
      0. 0. 0. 0. 0. 0. 0. 0. 0. 0. 0. 0. 0. 0. 0.000237919827
      6.75396004e-05 0.000135267066 9.56037547e-05 -0.00182905025
      -2.07155226e-05 0.000134684102 0.000170142419 6.01673091e-05
      0.00373715535 0.00147237966 0.00465902966 0.00824844837
      -0.00650108838 0.0137120364 0.0164465271 0.00590155227
      0.00171813578 8.61241824e-06 0.000135366936 0.000277508865
      0.000137520983 -0.00291673047 0.000159681906 0.000506274868
      5.39047469e-05 0. 0.00354353245 0.00367490971 0.00725956075
      0.00692685368 -0.00650108838 0.0140480381 0.0188070219
      0.00805568602 0.00416256161 0.000768054393 -0.000337825186
      0.00327454368 0.00456737587 -0.0099573154 0.00826459937
      0.0119536221 0.00410313904 0.000814491592 -0.0153351557
      -0.0013714314 0.00168861926 0.0123412777 0.0377162509 0.0201904587
      0.018334223 0.010771024 -0.000285508111 0.00131288799
      0.000757300877 0.0061133136 0.00230499031 -0.0101900464
      0.00816707313 0.0113137374 0.00531335594 0.00240059034
      0.00121692207 0.00320007466 -0.00142642495 0.00741607836
      0.0354629569 0.0163564142 0.00952950027 0.0111681856 0.00959320925
      -0.002326824 0.00801348127 0.00466992659 0.000663625891
      -0.0225567594 0.00968758482 0.0134414788 0.00306143332
      -0.00271971175 -0.0157752354 0.00196441589 0.00553929061
      -0.00212781248 0.0013055146 0.00429749256 0.00834206957
      0.00432137679 -0.00946722459 0.00292753452 0.00279647578
      0.00255741784 -0.00274593174 -0.0181090795 0.00661620125
      0.00543542998 0.00450529112 -0.00617966894 0.00471259234
      -0.00187039457 0.0161401182 -0.00409732107 0.00467023067
      -0.000402406848 0.0059750583 0.0033840267 -0.0070658857
      -0.0129489098 0.00185107288 0.0105280746 0.0129802739
      0.00660826406 0.0153965009 0.00831006281 0.00640704622
      0.00946989004 -0.0082629025 -0.017211806 -0.019864805
      0.00448020687 0.0252723619 0.0280411467 0.0149064641
      -0.000645073073 0.00138896308 0.00827043131 -0.00868210662
      0.00272357441 0.00788441021 0.00709496625 -0.000117380136
      0.00656424789 -0.00237645139 0.00246404787 0.00737274718
      -0.0324589722 -0.0191637967 -0.00600566249 0.00859956071
      0.00892820396 0.0142633161 -0.00205410179 0.00980603229
      -0.00261134421 -0.0268560611 -0.0287034456 0.00353297242
      0.0147579433 0.0282979105 0.0160449147 0.00291446364 0.0112442132
      -0.00316106877 -0.0398299396 -0.0285179317 -0.0073517221
      0.0161410645 0.0181907658 0.0189379249 0.00508815283 0.0143208941
      0.0118960384 -0.0229050368 -0.0181207843 -0.00218514795
      0.0198398028 0.0241660252 0.0213276036 0.00605675485 0.0206669234
      0.0103149572 -0.0205049012 -0.0261287168 -0.00492349034
      0.0146198059 0.0184330177 0.025628224 0.00440189335 0.00593980681
      -0.0131105809 -0.0275284871 -0.0195806436 -0.0127070863
      0.0227831099 0.0137519119 0.0144738872 0.00619442156 0.0030876575
      -0.013723474 -0.029093409 -0.0237742234 0.00277777202 0.0305124056
      0.0224810578 0.0252304412 -0.000902972359 -0.0137560684
      0.00543256849 -0.00187764759 -0.0134832282 0.011581406
      0.0118151167 0.00971615221 0.0155798821 0.0136987269
      -0.000591225282 -0.00998411421 -0.0130398953 -0.00992344413
      0.0165614653 0.0095157912 0.0223030895 0.0304761659 0.0185766406
      -0.00027519968 -0.0208829399 -0.0250805579 -0.00382943451
      0.0123451697 0.0244702511 0.0254623443 0.0206574779 -0.0133762117
      -0.020927012 -0.00360247656 -0.0226296689 -0.00436697854
      0.00605261605 0.0142806498 0.0119563155 -0.0119888103
      -0.0197106451 -0.021989055 -0.020696545 -0.0167067889
      -0.00380628812 0.0113639962 0.0065196692 0.0274469778 0.0289427415
      0.00903300196 -0.0124990866 -0.00949647091 -0.00832367782
      -0.00414343365 0.00901357085 3.99658602e-05 0.0214077812
      0.00719909603 0.00576602807 -0.00420754636 -0.00647834688
      -0.0129114529 -0.017050609 -0.0109449904 0.00466152374
      -0.000554059225 -0.0174281448 -0.00882512238 -0.0195481423
      -0.00152733596 0.000938966346 -0.00178853679 0.00965480786
      0.00242826738 0.00672218576 -0.0195459444 -0.00747930398
      -0.0146185532 0.00762007711 0.00915236864 -0.00754167652
      -0.00312958122 0.0118999016 0.014733539 -0.00489556463
      -0.00103495445 -0.00300615677 0.0105548892 0.0195286591
      0.0109022008 0.0128145777 0.0179364495 0.00212153117 -0.0265823323
      -0.0193717144 0.00611074315 -0.0063733873 0.00379482098
      0.00913359318 0.0178273618 0.00974229723 -0.000139015727
      -0.034687046 -0.0150207411 0.00751308724 0.00461101299
      -0.00548294745 0.0179598331 0.0199336298 0.0249099899
      0.00525061926 -0.0189633332 -0.00397388963 0.0175220352
      0.00536496332 0.016404137 0.0104292193 0.0156748835 0.00774137164
      -0.0172704346 -0.0340020657 -0.0355981402 0.0022919355
      0.0204179306 0.00278986688 0.0123769641 -0.000531784492
      0.0160243344 -0.0126763741 -0.0380816162 -0.0298924204
      0.0132415537 0.0100684334 0.000947370543 0.0227128305 0.0202967469
      0.0275385212 -0.00131179288 -0.0253252983 -0.0179715529
      -0.00557278469 -0.00502741244 0.00392149715 0.0242054239
      0.00743197929 0.0236445051 0.00345555879 -0.00501159159
      -0.0113115758 -0.0190830138 0.0221828204 0.00774004078
      0.00988029409 0.00642176997 0.0164829269 -0.0216183383
      -0.0494174585 -0.0314361714 0.00183980342 0.0160821658 0.016847128
      0.0156711396 0.00177385111 0.01827747 -0.0160881076 -0.0383289233
      -0.0263525154 -6.81767851e-05 -0.00662340038 0.00729143759
      0.0124585908 -0.0200946257 0.0229664668 -0.014101495 0.00440338999
      -0.0101803532 -0.0206258278 0.00612214394 0.00725336466
      0.00595051004 -0.00678971643 -0.0222120211 -0.00785040949
      0.000524768431 -0.00291520893 0.00648949342 0.0068172412
      0.0126857841 0.0153564028 -0.0221338719 0.00945971347
      -0.0205294341 -0.0265599508 -0.0223265477 -0.00703525078
      0.00334721827 0.0112610636 0.00249670539 -0.00172178377
      -0.0151694659 -0.0122581972 -8.9666928e-06 -0.00516438019
      0.000657591678 0.00142758095 0.00956530217 0.00383645599
      0.00104927598 0.0190744605 3.38807058e-06 0.00902636535
      0.00873423461 0.00671168137 0.00205987575 0.000804628769
      0.00550984498 0.00593267428 -0.0079816198 0.00225601043
      0.00269146124 0.00258292048 0.00282699079 0.000111511326
      0.0219888892 0.00412710477 0.0152331218 0.0233338103 0.00149320671
      0.0154861091 0.00952451117 0.00156950951 0.000243993301
      0.00408802694 0.00830229372 0.0104428427 -0.00792150665
      0.00713739078 0.00533617614 0.00288312184 0.00224946719
      0.00331694749 0.00087416888 0.00597553654 0.00854122732
      0.000852853293 0.00797994621 0.00150515139 0.00375301926
      0.00242362544 0. 0. 0. -3.36947378e-05 -0.00321192597
      -4.52510576e-05 0. 0. 0. 0.00207573804 0.00374768651 0.0106780129
      0.0192003697 0.000667837041 0.00516946334 0.00322483922
      0.0042697764 0.00300911791 0. 0. 0. -4.82539945e-05 -0.00493979501
      -2.61904552e-05 0. 0. 0. 0. 0. 0. 0. 0. 0. 0. 0. 0. 0. 0. 0. 0. 0.
      0. 0. 0. 0. 0. 0. 0. 0. 0. 0. 0. 0. 0. 0. 0. 0. 0. 0. 0. 0. 0. 0.
      0. 0. 0. 0. 0. 0. 0. 0. 0. 0. 0. 0. 0. 0. 0. 0. 0. 0. 0. 0. 0. 0.
      0. 0. 0. 0. 0. 0. 0. 0. 0. 0. 0. 0. 0. 0. 0. 0.000304579851
      0.000501116563 0.000256835425 -0.000874846301 0.00040637856
      0.000583606423 0. 0. 0.00605506031 0.00602145679 0.00870995037
      0.00468310108 -0.00739136245 0.0138348257 0.0160105508
      0.00927545317 0.00607259152 0. 9.58019809e-05 0.000202732248
      0.000548231241 -0.00103442953 0.000656833989 0.000557703199 0. 0.
      0.00520292437 0.00233931467 0.00455863075 0.0081744045
      -0.00739136245 0.0145815378 0.0154750515 0.00526209874
      0.0064539169 0.00589958159 0.00370383798 0.00529158115
      0.00251889462 -0.00955606718 0.0100656236 0.010577023
      0.00775366835 0.00497389864 0.00504214549 0.00557366619
      0.00615316117 0.0118464716 0.0204690732 0.0112809045 0.00160117296
      0.00915401056 0.00684856065 0.00426628115 0.00137418625
      0.000885321351 0.00259409822 -0.0111094378 0.00824309047
      0.0100662196 0.00345910131 0.00442911591 0.00548343686
      0.00282382965 0.0164213441 0.0147289261 0.0469364673 0.0114722215
      0.00454544183 -0.00307987188 0.00807636604 -0.00197989959
      0.00108931062 0.00413868157 0.0017747333 -0.0134366322
      0.00482637994 0.00127698958 0.00617370335 -0.00759023707
      -0.0102847796 -0.0129621765 0.0028794799 -0.00399720948
      0.0143053709 -0.00153256836 0.00799510255 -0.00176763558
      -0.0327758007 0.00706940005 0.00376435881 0.0074441852
      0.0107001336 0.00253410405 0.00605781982 0.00575817097
      -0.00241148192 0.00235683587 0.000301084656 -0.0242797658
      -0.0234419387 -0.0222923048 0.0165982619 -0.0121176206
      0.00698192976 -0.00177373341 0.00790830422 0.00262469193
      -0.0146980546 -0.00253873458 0.00644216547 0.0197037607
      0.00147250423 0.00885364879 -0.000128888641 0.00369578949
      0.0170485657 -0.0190573987 -0.0102898767 0.00477971416
      0.0232550986 0.00319085247 0.0071893041 0.0014813469 0.0113886064
      0.0184532162 -0.0244948231 -0.0225160364 -0.0233824085
      0.00913152471 0.000538570865 0.0047349399 0.0105451876
      0.0280103926 0.0247848667 -0.0350549407 -0.0465321466
      -0.0293761361 -0.00868870411 0.00692162942 0.00678364513
      0.0222897027 0.0297849011 0.0156995077 -0.0131433373 -0.014722595
      -0.00253408635 0.0193832386 0.00659784442 0.00847679749
      0.00721087726 0.0158606358 0.0127800619 -0.0092544686
      -0.0234618615 0.00554941641 0.00863784272 0.00773838535
      0.0169285797 0.00941367075 0.0013083996 0.0146499546 -0.0259762183
      -0.0403949469 -0.00880063232 0.00602433132 0.0102941655
      0.0138267819 0.0168325379 0.01819814 -0.00800356921 -0.0254971199
      -0.0162870288 -0.00948036276 -0.00593384588 0.00866480544
      0.0199431647 0.0184770823 -0.00528491056 0.0194801893
      0.00357511756 -0.00443804264 0.00992074236 -0.0106589859
      -0.000842360489 0.0150593333 0.0147606805 -0.00707375584
      -0.0123264948 0.0014747848 -0.00132863165 0.00933757424
      -0.0121436175 0.00544024725 0.0176045746 0.00881664734
      -0.0189500079 -0.0018792788 -0.00281199673 0.00482924096
      0.0151096014 -0.00734471809 0.00881760754 0.0118181305
      0.00901494175 -0.0212926231 -0.03861361 -0.00294375676
      0.00236208155 0.0259749107 -0.0136714596 0.00706526404
      -0.00522337947 -0.0104482351 -0.0377927534 -0.0184045937
      -0.000391829381 0.00562282978 0.00313425367 0.00130974886
      0.0121432692 0.0176185723 0.00480942614 -0.0152521264 -0.008050167
      0.00791204348 0.00949674379 0.00414304854 -0.00585807115
      0.00999967102 0.0109898234 0.00916424021 -0.0102892928
      -0.0361306593 -0.0016341625 0.00648747105 0.00534871174
      0.00517224055 0.00618859753 -0.00627657073 0.0022628163
      -0.0271117575 -0.0204202402 0.0021027918 0.00727252848
      -0.00695612514 -0.00613859808 -0.00079017895 -0.012083021
      -0.0029050312 -0.021615535 0.00665169349 0.0155996326 0.0192127544
      0.0080802897 0.0109956861 0.00324220257 -0.00617864868
      0.00665264437 -0.0067549618 0.0299289692 0.0234981272 0.0159797445
      0.0163831208 0.017765671 -0.00702052563 -0.0270365644
      -0.0204973612 0.0134368967 -0.0209728163 0.00897734519
      0.0217201784 0.00162514311 -0.00465729367 -0.0176345147
      -0.0359288417 -0.0277699269 -0.033099886 0.00306173763
      0.0202116389 0.016719155 0.01727641 -0.0079417564 -0.0304236356
      -0.0421108641 -0.0365787186 -0.00782108586 0.0354071595
      0.0123633388 0.0204343274 0.0199983809 0.0128340712 -0.0121118091
      -0.0374619775 -0.0331133418 0.0212687328 0.0320241116
      -3.9649698e-05 0.013946401 0.000842881273 0.00940270443
      -0.0206073429 -0.0331089273 -0.0186540447 0.0293666348
      0.00967360195 0.00466263155 0.00797871687 0.0182335209
      -0.00562815415 -0.00656303437 -0.0273338016 -0.0151227927
      0.00900237542 0.0184594765 0.00115965772 0.00852537528
      0.00416736212 -0.000651603157 -0.0107365074 -0.0110397721
      -0.0129155368 0.0144511601 0.0108671952 0.00855574384
      0.00435763132 0.00519144675 0.00444654236 -0.0264709536
      -0.0402633473 -0.0182411261 0.0255166534 0.0090035107 0.0215133969
      0.0111284889 0.0151914004 0.0438252985 -0.0240991767 -0.0366639048
      -0.00978126097 0.0242841803 0.0135203227 -0.0025522029
      -0.0015135766 -0.00402671471 -0.014782533 -0.0306948498
      -0.0249722451 -0.0178262517 0.021884419 0.0173371062 0.0084971888
      0.00424914993 0.0021123027 0.0243728533 -0.0371187069
      -0.0360215642 -0.0163983591 0.0196758453 -0.00469400547
      0.00822101813 0.00853911228 -0.00448404998 0.0304106362
      -0.0398356095 -0.0588173978 -0.0274775848 0.00251196884
      0.00217404356 0.00607146649 0.00335694989 0.00139038661
      0.00423937943 -0.00373243936 0.00274751359 0.00767076155
      0.000444456819 0.00888189301 0.00946944859 -5.74807091e-05
      -0.0128629468 0.0393505581 -0.0580901317 -0.0642681718
      -0.0395735018 0.00333224144 0.00575847598 0.0053811213
      0.00255202665 -0.0062815845 0.0127553856 -0.00894369185
      -0.00909362361 0.00151524378 0.00522065675 0.00292438315
      0.0150807183 0.00697594462 0.0105273323 0.0148624545
      -0.000996178831 0.00851864181 0.0152296349 0.00366809592
      0.0028555661 0.00898383837 0.00757759344 0.00641463324
      -0.0135475462 0.00246985839 0.00296196016 0.000650490809
      0.00168488186 0.0131038278 0.0152311176 0.0146561721 0.00220935512
      0.0209867209 -0.0107153682 -0.00363874738 0.00800658297
      0.00847214833 0.00837017223 0.00972312409 0.00680528581
      0.00118866155 -0.00846713874 0.000457332149 0.00127040595
      0.00134572736 0.00421367586 0.00384720368 0.0124861849
      0.0113702593 0.010735767 -0.0016426841 0.00218740525 0.00289240992
      0.00147377956 0.00233860989 0. 0. 0. -5.75271442e-05
      -0.00447641499 -6.31623989e-05 0. 0. 0. 0.0066676368 0.0141281188
      0.00779441604 0.00325868418 0.000380332378 0.00676810322
      0.00534721697 0.00174984674 0.00471124519 0. 0. 0. -8.40308858e-05
      -0.00405126484 -9.84609578e-05 0. 0. 0. 0. 0. 0. 0. 0. 0. 0. 0. 0.
      0. 0. 0. 0. 0. 0. 0. 0. 0. 0. 0. 0. 0. 0. 0. 0. 0. 0. 0. 0. 0. 0.
      0. 0. 0. 0. 0. 0. 0. 0. 0. 0. 0. 0. 0. 0. 0. 0. 0. 0. 0. 0. 0. 0.
      0. 0. 0. 0. 0. 0. 0. 0. 0. 0. 0. 0. 0. 0. 0. 0. 0. 0. 0. 0. 0.
      0.000121952173 0.000793494924 3.49790462e-05 0.000244311406
      0.000162455777 2.19996582e-05 0. 0.00262022763 0.00394810317
      0.00469579408 0.0144941965 -0.00401257956 0.0084725963
      0.00694614043 0.00303505221 0.00336618023 2.60030301e-05
      0.000119472788 0.000275926315 0.000406225008 0.000286799856
      -1.88359791e-05 0.000265991112 0.0003418735 0.00021131715
      0.00216338364 0.00658123335 0.00744862761 0.00727414247
      -0.00401257956 0.00201294874 0.00745580159 0.0135661513
      0.0150764631 0.00164405699 0.00259833597 0.00379248057
      0.00545260031 -0.00830007344 0.00447994843 0.00524656149
      0.00194056856 0.00263449247 0.00626861025 -0.00503486581
      0.0202553943 0.010793997 0.0608833916 0.0108863777 5.86227579e-05
      -0.00398460915 0.0112956483 0.000961589685 0.00432196492
      0.00561715849 0.00253920024 -0.0075639002 0.00150088104
      0.00481785228 0.00885607861 0.010581661 -0.00591445388
      -0.00911241677 0.00424958207 0.00270937965 0.0187458936
      0.0109305792 -0.014335135 -0.00588961644 0.00717057986
      0.0122655658 0.00679908087 0.010360932 0.0123061975 0.012512085
      0.00592073379 0.00744569814 0.00337175094 0.0148419151
      0.0038303507 -0.00840513222 -0.00611647218 -1.57739923e-05
      0.0191780739 -0.00841544755 0.0110822814 0.007467316 0.0188052021
      -0.0075185434 -0.00438956311 -0.000335865829 0.00198065885
      -0.00640806602 0.00428324146 -0.00486865826 -0.00236216164
      0.00207695086 -0.0408592001 -0.0292493999 -0.0207952131
      -0.0227609631 0.0164685734 -0.0363384634 -0.00914858375
      -0.0152121317 -0.0214395076 0.0111145098 -0.00975998398
      -0.00560316164 -0.00201964681 0.0434171297 0.00405166252
      0.0123673566 0.0187810622 0.0201855041 0.0189925339 -0.020560313
      -0.0159428734 -0.011930787 0.00345382141 0.0138068981 0.0207324494
      0.0314015076 0.0253147241 -0.0174050722 -0.0221152008
      -0.00687230704 -0.0114428001 0.0269628502 -0.0131583391
      0.00385610643 0.00438403385 -0.00689819315 -0.0118068838
      -0.0473331884 -0.0286973398 -0.0223436877 -0.00867659133
      -0.0140144946 -0.00522738323 0.00541460793 -0.00746416952
      0.0177916773 -0.0242186654 -0.0228713918 -0.0161478203
      -0.00844932441 0.0114135174 0.0307529178 0.0218429361 0.0190309435
      0.0157485064 -0.0118792551 -0.0136197247 -0.00793158915
      -0.00487441104 0.0139232995 0.0395122617 0.022226505 0.0157637205
      -0.00553347729 -0.0366682485 -0.0240933411 -0.013155438
      -0.0211481377 -0.00437190337 0.00826240331 -0.00383891747
      0.000846113777 0.00985135417 -0.0068359538 -0.00543592544
      -0.0120067988 -0.0169058293 -0.00546411378 0.0185833853
      -0.00279076258 0.00775958411 -0.00141639356 0.0011741363
      0.000165405654 0.00596323656 -0.00563418539 -0.00421080831
      0.0125599327 0.0117860511 -0.0106004709 -0.00874988455
      0.0075192661 0.00730407611 0.023949651 0.0150530282 0.0121006668
      -0.00107158592 0.00662447419 -0.0125741586 -0.0097796293
      0.00547078904 -0.000832004938 -0.0128696887 -0.0124359028
      -0.0323052853 0.0027087254 -0.00769123295 -0.0184326656
      -0.0255594552 0.00965394173 0.00300133019 0.00909144338
      0.00262218597 -0.00956356525 -0.00403835997 -0.00528131379
      -0.0188688524 0.00287807058 -0.000718726718 0.00409970712
      0.00892772712 0.0102637447 0.0119279493 -0.00836492609
      0.0133161163 0.0126772905 0.00909127854 -0.00779342977
      0.00542361289 0.00538233621 -0.00410351297 -0.0112639945
      -0.0287445709 -0.00600841548 0.00375962653 -0.00180896791
      -0.0026520479 0.0017207847 0.00549615221 0.0129806194
      0.00531279016 -0.00574208517 0.00226800097 -0.00220819633
      -0.0104025658 -0.0240314174 0.00122207031 -0.00430858368
      0.00254032784 -0.0253317896 -0.0291865896 -0.0102270748
      -0.0160493143 0.0205540843 0.0149709228 0.0209455322 0.0103677111
      0.0152040794 -0.0120964078 -0.0272319168 -0.010534307
      0.00762979034 0.0235398971 0.0274054445 0.0162645858
      -0.00202133297 0.00250667869 -0.00937744137 -0.0114414655
      -0.00865118206 0.0217417125 -0.00505342521 -0.011345163
      -0.00275200629 -0.0177239738 0.00546549354 -0.0285879802
      -0.0291743241 -0.010866845 -0.0158249158 0.0027361426
      0.00605692808 0.0008579524 -0.0236279238 -0.0130220512
      -0.0235958006 -0.0175063834 -0.00422551343 -0.000829970406
      0.0101621607 0.00144890661 0.000885526533 0.000573997793
      -0.00833618455 0.00123991142 -0.000363061408 -0.00365851657
      0.00853355601 0.0143162338 0.00579885207 0.00675263954
      0.00365309604 0.00890991557 0.00990667753 0.00771169551
      -0.00691936212 -0.00125083269 -0.00263128686 -0.0068578166
      -0.00176874013 -0.00915468484 -0.0292759091 -0.0121113891
      -0.00379181327 -0.00588621153 -0.000923288171 0.00130701601
      -0.00675969711 0.0144773079 0.0066576479 0.00562159484
      -0.0110271424 0.00573658478 -0.0061289575 -0.00825968012
      0.00249220151 -0.00350389816 -0.00208933791 -0.0178345535
      -0.010466408 -0.0154107055 -0.0144179612 -0.0233807769
      0.0099297436 0.0271067526 0.0074707116 0.00814564154 -0.0147029813
      0.0288001746 -0.0216022525 -0.0177597292 -0.00165548024
      0.0274145305 0.00353132561 0.000661734666 0.0110048177
      -0.00448210631 -0.00626294315 -0.0285440609 -0.0189743396
      -0.0318830311 0.00444570091 0.0164248142 -0.00516302558
      -0.0203672498 -0.0259549953 0.0124334479 -0.0165612828
      -0.0106254322 -0.0107526099 0.0190435126 0.0258893725 0.0117938574
      -0.000397463009 -0.0323524103 0.0281565581 -0.0378721729
      -0.0364634842 -0.00115696236 0.018115297 0.0132751726
      0.00924595632 0.0061588781 9.94956499e-05 0.0152908452
      -0.000354362768 -0.0037666664 0.00111840421 0.0125867585
      0.00228837994 -0.0255266912 -0.0385824256 -0.0436573885
      0.0255070291 -0.023430502 -0.0106881205 -0.00850442331
      0.00229685963 -0.00793995149 0.00302967057 0.00778967002
      -0.00421060948 0.00728274742 -0.00236250111 -0.000974940544
      -0.0093008168 -0.00684559345 0.0108704632 0.010929347 0.0124268029
      0.00860181265 0.0246322807 -0.0054691392 -0.0078304233
      -0.0044863699 0.00654202839 0.00532978959 0.00530786067
      0.0108273979 0.00547750434 0.000270452816 0.00534980092
      0.00113765313 4.24724421e-05 0.00416761357 -0.00289979717
      0.0106838318 0.00918580033 0.00241945544 0.0213453937
      -0.0122911902 -0.00880578812 -0.0145982467 -0.0129190441
      -0.00209482969 0.00651470898 0.0112170307 0.00999873038
      -0.00325994496 -0.0015504855 -0.00256668054 -0.000711510424
      -0.00609148899 0.00245543453 0.00567802414 0.00927156489
      0.00493399706 0.00217597862 0.01215469 0.0035911072 0.000486030331
      0.00338267302 0. 0. 0. -7.98629844e-05 -0.00369729684
      -9.14472403e-05 0. 0. 0. 0.00116798515 0.00389288273 0.0167471059
      0.00981056504 -0.000714735186 0.00142463308 -0.00106090878
      0.0025984738 -0.00173645222 0. 0. 0. -6.54858741e-05
      -0.00428129965 -0.000110542031 0. 0. 0. 0. 0. 0. 0. 0. 0. 0. 0. 0.
      0. 0. 0. 0. 0. 0. 0. 0. 0. 0. 0. 0. 0. 0. 0. 0. 0. 0. 0. 0. 0. 0.
      0. 0. 0. 0. 0. 0. 0. 0. 0. 0. 0. 0. 0. 0. 0. 0. 0. 0. 0. 0. 0. 0.
      0. 0. 0. 0. 0. 0. 0. 0. 0. 0. 0. 0. 0. 0. 0. 0. 0. 0. 0.
      5.8683152e-05 0.000351447816 0.000315399258 0.000313331228
      -0.00149814668 -1.44106461e-05 0.000133941401 0.000176032801
      0.000175440451 0.00649794098 0.00655516889 0.0064795888
      0.00547932507 -0.00420792541 0.0026299723 0.00400136597
      0.00922765955 0.0155258346 2.6674159e-05 0.000230214806
      0.00030090849 0.000447479106 0.00146684167 0.00100919511
      0.00015412044 6.57462124e-07 1.16960309e-05 0.00729093282
      0.00686961832 0.00866369903 0.00897895452 -0.00420792541
      0.0128712133 0.00257578748 0.00132474897 0.00509478478
      0.00375941745 0.00388814788 0.0043298672 0.00183147192
      -0.00219804398 0.00498752715 0.00324872229 0.00699169654
      0.0117118852 0.00102666754 -0.00296249823 -0.00648845499
      -0.00167659915 0.0363767669 0.0124272108 0.00539786462
      0.0031973829 0.00412785448 0.0037388748 0.00528185582
      0.00737081748 0.00424567424 -0.00205812417 0.00742148235
      0.00225068792 0.00139267289 0.00352328969 -0.00334495702
      -0.0075674965 0.000586080307 -0.0011974551 0.0386549272
      0.000586554408 0.0102586439 0.00347022503 -0.00209602411
      -0.0100387866 -0.00175881421 0.00197266508 0.00287760608
      0.00925183762 0.00851208996 -0.000368083536 0.00158967101
      0.00163374736 -0.025786981 -0.0131093785 -0.0026975621
      -0.018045608 0.0209345818 -0.0183005296 -0.0119965253
      -0.00704230368 -0.024578087 -0.00782730523 0.00214926735
      0.00578240119 -0.00372850429 -0.00123323873 0.00782140531
      0.00430033589 0.00178650883 -0.000324900175 -0.0165464226
      0.00559895951 0.00761031779 -0.0325546563 0.010417222
      -0.00909821317 -0.00371656707 -0.00459479075 -5.82209614e-05
      -0.00477915071 0.000401219819 -0.00325077469 -0.0136979185
      0.0227682423 -0.0163823981 -0.00424619298 0.00530070206
      0.00032340773 -0.00424995041 -0.0150251267 -0.0153755303
      -0.015065995 -0.0211678408 -0.0187432859 -0.0150746629
      0.00356022199 0.00248107966 0.00396421505 0.0200554859
      0.0114875762 -0.0238233935 0.021390168 -0.0132074645
      0.000840684574 0.00785619393 0.0221156925 0.00417452445
      0.00659750868 0.0031009221 -0.0128586646 -0.0221710894
      -0.0198446084 -0.0140075339 0.00912528858 0.014172201
      0.000994913164 -0.0120963212 -0.00610642834 -0.00119226787
      -0.025478309 -0.0132928547 -0.00161396444 -0.00479935855
      0.00911563542 0.017554732 0.0126812616 0.0106898667 0.00242173579
      -0.0169102941 -0.0125378547 0.0116215255 0.000648891379
      0.00870672613 0.0228775479 0.0117312809 0.00655089365
      -0.0117546469 -0.0231157076 -0.0196228363 0.00125955278
      0.00378102786 0.0239604358 0.0284339152 0.016981788 0.0104757864
      -0.0195203163 -0.0282272547 -0.0323428437 0.00636092806
      0.00307558826 0.0203301441 0.0116939619 0.0131994803 0.00215687603
      -0.00265933527 -0.0240348335 -0.0115903933 0.0117976032
      0.000462336204 -0.000800834328 3.79411358e-05 0.00937528815
      0.000743928191 0.00307513354 -0.00741818594 0.0048103123
      0.00685095973 -0.000928780413 -0.0057075494 0.0145411473
      -0.00226157135 -0.00832567085 -0.0277234465 -0.0327634253
      -0.026807012 -0.00243031466 -0.000278922525 0.00507528707
      0.00207319367 -0.0116262129 -0.0204759203 -0.0206468608
      -0.0148740634 -0.00563671486 0.00924605876 0.0151887089
      0.00767914206 -0.00242696889 0.00414437009 -0.00367280561
      -0.00856272783 -0.0056804698 -0.00034197903 -0.00117695681
      -0.00719726877 -0.00745304162 -0.0119409636 -0.0124247298
      -0.000655099284 -0.0198753141 -0.0123330625 -0.0111594638
      0.000450423977 -0.00565818418 -0.0141122369 0.0103846239
      -0.00268424791 -0.0171467792 -0.0160341524 -0.0139400382
      -0.0185477622 0.0163421594 0.0155146541 0.0133654494 0.0146244317
      0.00463619363 0.0040140627 -0.00386776798 -0.021177182
      -0.0210231729 0.0172705501 0.0019370236 0.00141263264
      0.000733688357 -0.00436352333 0.00277064182 -0.0192819256
      -0.00624223845 -0.0149693741 -0.00737817166 7.06623541e-05
      -0.0022286491 0.00328596309 0.00909031369 0.00238514086
      -0.0203199927 -0.0183274467 -0.03203642 -0.0169489328
      -0.00500401296 0.00311386446 0.0223943256 0.0115490928
      0.0218969248 0.00381635292 -0.00235485588 -0.00859902054
      0.00741541525 0.00801580679 0.0206489637 0.00631304085
      0.00675642397 0.000232392806 -0.00915437285 -0.00748521462
      -0.0246816091 -0.0115630915 0.00166869594 0.0134136202
      0.00111571292 -0.0048247152 -0.00144719903 -0.0147078643
      -0.0483916886 -0.0214600451 -0.00527123222 -0.00408363016
      -0.00063557527 0.00752929458 0.00257474743 0.016942922
      0.000394872332 -0.00868718326 0.00616979413 0.0159814917
      0.0162612665 0.00367411482 0.000436405535 -0.00323975203
      -0.00775014888 -0.0114950659 -0.0371766388 -0.0189458486
      -0.00144994434 -0.00416196743 -0.0046344134 0.00194412319
      0.0198626444 0.0204641744 -0.00508403033 -0.010851603
      0.00918240473 0.0187182147 0.0202522539 -0.00680138497
      0.00787197985 0.000398657081 0.0110892048 -0.00373026822
      -0.0187961105 -0.00418843981 0.00403688569 -0.00187932677
      0.00625159079 0.00556257274 -0.0168408751 -0.0174631849
      -0.0191586837 0.00388793158 -0.00782190543 -0.00816277042
      -0.0106128678 -0.0025865098 0.00182761741 -0.00644407514
      0.000643113279 -0.0111778816 -0.0278389417 -0.00615653116
      0.0128444303 0.0162034109 0.00506491633 0.00794610381
      -0.0106829451 -0.0186856296 -0.0190593731 0.0105519369
      -0.00880015641 0.00370109221 -0.000525263138 0.00305039086
      -0.00546059664 -0.0380408913 -0.0325719602 -0.0372325405
      0.0252243355 -0.0164651014 -0.0150997471 -0.0203944258
      -0.0144902887 -0.00333408988 0.00180181034 0.0133334603
      0.00843520742 0.0151036652 0.00364163052 0.00509743951
      -0.00205574906 -0.00635392964 -0.00592391053 -0.017830139
      -0.0206937902 -0.0283636879 0.0233826172 -0.00946537778
      -0.0169810671 -0.0160274189 -0.0185665227 -0.00413761474
      -0.000723709469 0.0157618597 0.00386367366 -0.00576831028
      0.00870377384 0.00432238262 -0.000680049649 -0.00977262296
      -0.00195753877 0.00891018659 0.0139122875 0.000293881923
      0.0177633036 -0.00432656799 0.00541569944 -0.0017148793
      -0.00702995993 0.00346400356 0.00522169005 0.0112315761
      0.00799148344 -0.00149673375 -0.000720188254 -0.000753866043
      0.00284042489 -0.000373549818 -0.00794165488 -0.0030048599
      0.0153436335 -0.00215132581 0.0185775608 0.00196330785
      0.00494427048 0.00278105377 -0.0118639274 0.00649737008
      0.00164662022 0.0102009401 0.00172756403 -0.000715356146
      0.000690828136 0.00170158525 0.00305547565 0.00651927153
      0.00924672186 0.00342973787 0.014184244 0.00859145168
      -0.000127168154 -0.00151891913 -0.00124692591 0.00797889382
      0.00354782073 0. 0. 0. -4.99089256e-05 -0.00356145762
      -6.96373099e-05 0. 0. 0. 0.0109794429 0.003187211 0.00985159166
      0.00157880725 0.00229935464 -0.00058338471 0.00264283782
      0.00324777677 0.0108231092 0. 0. 0. -4.81525603e-05 -0.0050944956
      -7.22518525e-05 0. 0. 0. 0. 0. 0. 0. 0. 0. 0. 0. 0. 0. 0. 0. 0. 0.
      0. 0. 0. 0. 0. 0. 0. 0. 0. 0. 0. 0. 0. 0. 0. 0. 0. 0. 0. 0. 0. 0.
      0. 0. 0. 0. 0. 0. 0. 0. 0. 0. 0. 0. 0. 0. 0. 0. 0. 0. 0. 0. 0. 0.
      0. 0. 0. 0. 0. 0. 0. 0. 0. 0. 0. 0. 0. 0. 0. 0. 5.37862907e-05
      7.59641916e-05 0.00283678039 0.0012615117 0.000500873721 0. 0.
      0.00633578422 0.00644915551 0.0050111562 0.0010498981
      -0.00116897444 0.0175763443 0.0088129798 0.000963042781
      0.0022191552 0. 0. 0. -6.45723558e-05 -0.000999988872
      0.00024552783 0.000460764888 2.87408948e-05 8.94907032e-07
      0.0106014451 0.00722732348 0.00284826243 -0.00254108477
      -0.00116897444 0.00413787132 0.00796832982 0.00258552749
      0.00424648123 0.00397727918 0.00677084085 0.00519947708
      -0.00021866466 -0.00288962317 0.0086351065 0.00535421399
      0.000963000639 0.00137966534 -0.000915492361 0.00919997972
      0.00538393203 -0.0104964264 0.0250034668 0.000267775817
      0.00865332037 0.00368900411 0.00185622566 0.00770925405
      0.00787049066 0.00278594741 -0.00376028777 -0.00460037915
      0.00187656179 0.00341305556 0.00126727659 0.00564386882
      0.0166110843 0.0135799656 0.0120014381 -0.0339728259 0.0348763987
      -0.00654386869 0.014476941 0.0166675095 0.01482803 -0.0074825231
      0.00855974294 0.00748074753 -0.0071269297 -0.0292238835
      0.00687323604 0.00520662824 0.00140083698 -0.0028031969
      -0.0125403525 0.0200312529 0.00441069156 -0.0337860547
      -0.0024399606 -0.00831473805 0.00828486774 -0.0118928738
      0.00922344252 0.0121505931 0.0115176411 0.0100469608 -0.0113182254
      -0.0212702155 0.00523689482 0.00858047605 0.0136144096
      0.00424849894 0.00901537389 0.0171550289 0.0165169593
      -0.0229920819 0.00761530828 0.000866936229 -0.00358703034
      -0.00684170239 0.0034004366 0.0101995328 0.0273395106 0.0164233726
      -0.00490886392 0.011120596 -0.00541940378 0.000375023461
      -0.0063056089 0.0235699974 -0.000236129476 -9.54925636e-05
      -0.00241143396 -0.0242834929 -0.0310413837 -0.0238328949
      -0.0191233698 -0.00731872348 0.00177276914 0.0230495371
      0.0223199595 0.0156532135 0.00198022975 0.0215640776
      -0.00677860249 -0.00581234694 -0.00789950881 0.0173727628
      0.00524327904 0.0146028297 0.0111239431 -0.0217420999
      -0.0284852237 -0.0300417785 -0.0271622129 -0.021942392
      -0.00709616207 0.0225484706 0.0116810538 0.00285280054
      -0.0116038509 -0.0283501111 -0.0138612334 0.00210236618
      0.00420704624 0.0159994606 0.0296247564 0.0139332963 0.0108117964
      -0.0145858461 -0.0341738164 -0.0246915855 0.00915357936
      0.00720796362 0.0270401016 0.0173988808 0.0127417445 0.00893600844
      -0.017182298 -0.0123277223 -0.0236980598 -0.0149991279
      -0.00897223689 0.00978746451 0.0325415023 0.00297141098
      0.00856728852 -0.00536344247 -0.0215209909 -0.0305052269
      -0.0117081264 -0.00362006412 0.039540939 0.0127669647
      0.000636965327 0.00616319431 -0.0239729676 -0.0299881659
      -0.0232641399 -0.0101828696 0.00358484336 0.018315047
      0.00155863271 -0.0131512154 -0.00706059113 -0.0161460321
      -0.00909499172 -0.00631020637 0.0011784035 0.0149941938
      0.0119572422 0.0107078841 -0.000917173806 0.00459272321
      -0.00203868281 -0.0144370133 -0.0309632458 -0.01441471
      -0.00429673167 0.0125760818 -0.0173105467 0.000940874685
      0.00423605833 0.00161958195 0.00862377975 -0.00790840015
      0.0137230605 0.00255742623 -0.00639902335 0.0026133575
      -0.0278747994 -0.0363121331 -0.0205622297 -0.0230083056
      -0.0272928476 0.0104840659 0.0133299269 0.01202909 0.0175410509
      0.00514669297 -0.0063480353 0.00325892819 -0.0200151149
      -0.0237164386 0.0103052687 0.00617261184 0.0120798387 -0.012265414
      -0.000680823112 -0.0167500619 -0.00466291886 -0.00231326185
      -0.00952258985 0.0182527378 0.0042908187 -0.00786353741
      0.00599839306 0.0106773144 -0.00828669872 0.0128700994
      0.00896613114 0.00322652445 0.0123659112 0.00547725521
      0.0244823489 0.0152771445 0.0138436453 0.00337011577 0.00344362389
      -0.0207996219 -0.00982558168 0.00561444741 0.00575119164
      0.0145147825 -0.00446978351 0.0104074432 -0.0114785917
      -0.0118258893 -0.0382461958 -0.0213832613 0.00173738471
      -0.000165787511 -0.00372705003 0.0186784957 0.0130999805
      -0.0170467794 0.00430186931 -0.0186597295 -0.0035378451
      0.0100611243 0.00841169991 0.030234931 0.00713562407 0.00887380075
      -0.0102287009 -0.0123344865 -0.0321172513 -0.0102250054
      0.0334800109 0.0166680533 0.00578754954 -0.00831183139
      0.00572751323 -0.00861999393 -0.0046294108 -0.0374785252
      -0.0166011062 0.00303886971 -0.0104273958 -0.0106700482
      -0.00782773737 0.00900896918 0.0154798348 0.00534566678
      0.00114182429 -0.0121145211 -0.00715620443 -0.00477921218
      -0.0093853958 0.0131320031 0.00341198524 -0.000606768415
      -0.00072485226 -0.0150628667 0.00415953761 0.034489166
      0.0150810136 0.00217175949 0.00666258298 -0.0141648781
      0.000292223936 0.00385921425 0.0203782674 0.00341183296
      0.013249726 0.0141516803 0.00279774168 -0.00968143344
      -0.0141776353 -0.000820204907 -0.0114008952 -0.0106528895
      -0.0194042102 -0.00376477768 0.0106181065 -0.00903698243
      -0.00424566446 -0.014410641 -0.0153033724 -0.0189499557 0.02084147
      -0.00458727125 0.00896700379 0.00191612181 -0.00177171093
      -0.00427291868 -0.022765113 -0.00248594745 0.00102075574
      0.0119429473 0.00469975546 0.00503491098 0.0165719111
      -0.00862360094 -0.00564569514 -0.0119666699 -0.00947269797
      -0.000125378501 0.0481978692 0.0112026259 0.0131350579
      0.00423671212 -0.0168966446 -0.012341585 -0.011464525
      -0.0121885724 -0.0157240089 0.0204231199 -0.00255134562
      -0.00151967653 -0.0130527765 -0.0270161051 -0.00677782716
      -0.00468118908 0.00334452279 -0.00119673391 -0.0108531155
      0.00883335527 0.00967248436 -0.00582798105 -0.0197255686
      -0.0216803495 -0.0178567711 -0.0115435701 0.00388784707
      0.0277447645 0.00774019631 0.000892265176 -0.0157249346
      -0.0321275257 0.00278032408 0.00219787238 -0.00773574412
      0.0138691003 0.013223025 0.0111004142 0.00843172148 -0.00111984019
      -0.00688713696 -0.0122293737 -0.00404807273 0.00310322619
      -0.00855360087 0.0162067041 0.0108284261 0.00842903834
      -0.00679214858 -0.0152600668 0.00359133212 0.00386604946
      0.0047123814 0.000543763279 -0.00480849622 0.000338913087
      0.00560415629 0.00384582602 0.0059858514 0.00472622877
      0.00199913047 -0.00732797012 0.00541533949 0.0395525806
      0.0150701068 0.012276466 0.000505814038 0.00547336601
      0.00252935197 0.00236848905 0.000940961007 -0.0009169603
      -0.00153516978 0.00502519915 0.00873430818 0.00514384452
      0.0101541001 0.00627520774 0.0082335053 0.00607120432
      2.70683413e-05 -0.00192127191 0.000714426686 0.00758739933
      0.00170353299 0.00938012265 0. 0. 0. -5.96430364e-05 -0.0046110074
      -6.69182555e-05 0. 0. 0. 0.00969113596 0.00552837132
      0.000936067721 -0.00324268127 0.00176361355 0.00683104806
      0.0103806509 0.00655064266 0.0190625563 0. 0. 0. -7.23330959e-05
      -0.00477957865 -8.39485147e-05 0. 0. 0. 0. 0. 0. 0. 0. 0. 0. 0. 0.
      0. 0. 0. 0. 0. 0. 0. 0. 0. 0. 0. 0. 0. 0. 0. 0. 0. 0. 0. 0. 0. 0.
      0. 0. 0. 0. 0. 0. 0. 0. 0. 0. 0. 0. 0. 0. 0. 0. 0. 0. 0. 0. 0. 0.
      0. 0. 0. 0. 0. 0. 0. 0. 0. 0. 0. 0. 0. 0. 0. 0. 0. 0. 0.
      7.35811864e-06 1.42344234e-05 0. -1.36868412e-05 0.000429489126
      0.000453636516 0.000901698426 0.000225909447 5.23213566e-05
      0.0201043244 0.0121696489 0.00391657045 -0.00078772963
      0.00285714888 0.00822420046 0.0144186812 0.00869944226
      0.0115820756 0.000134802744 0.000146217033 8.02368322e-06
      -4.48310529e-05 -0.00566144753 6.52017698e-05 0.000198153197
      0.000135963302 0.000122053323 0.00749140885 0.00495144818
      0.00105118658 -0.00189848605 -0.0128225181 0.000963525032
      0.003985018 0.00494710403 0.00887378119 0.0142766964 0.0115131401
      0.00387137523 -0.00403677532 -0.0128663247 0.00150321482
      0.0047209491 0.00470417552 0.0108873602 0.0182488076 0.0145183094
      0.0167060588 -0.0102530532 0.000595595338 -0.0173843447
      0.00676528458 0.0183070321 0.0189915653 0.00433753291
      0.00411123037 0.00141811674 -0.00284309336 -0.0179372746
      -0.00150559493 0.000998897711 0.00211887457 0.00280274474
      0.0102913193 -0.000634178461 0.000295192614 0.0141828768
      0.0447190516 -0.0089967344 0.00277719181 0.0106863622 0.0104008159
      0.0149450181 0.00474849623 0.00569366151 -0.0047277729
      -0.0077501419 -0.00145544566 0.00332856132 0.0139612658
      0.011356622 0.00659065554 -0.00256404537 -0.00743719842
      -0.0212968104 -0.00106134464 0.00423330348 -0.00903756917
      0.0138759501 0.0120871607 0.00760560995 -0.00351877417
      0.000523096591 0.00325924461 -0.0113352016 -0.00623688195
      0.000471563195 0.00479765376 0.0098154014 -0.0107851038
      -0.0269511621 -0.0286616217 -0.0159216523 -0.00286752451
      -0.00726364693 -0.0165652037 0.00578069733 -0.00493578753
      0.0250256453 0.0130730644 0.00726946397 0.000477413938
      0.0329585075 0.0044295378 -0.00760407373 0.00948251411
      0.0200244654 0.02704449 0.0313433036 0.0274471156 -0.00261312164
      -0.000552343263 -0.023809582 -0.0331584997 -0.0320980102
      0.00269974046 0.00439758925 -0.0140167 -0.0132251242
      -0.00850673765 0.0113431923 -0.00794169214 -0.0179006476
      0.00319939153 -0.00437359139 0.0133657111 0.0107900454
      0.00399922719 0.00350875338 0.0175267607 -0.0135139739
      -0.0346245095 -0.0360377356 -0.00232680794 0.035397958
      0.0236130171 0.0236000456 0.0142537951 0.00886032358 -0.0150220385
      -0.0355388969 -0.0281701777 0.0180999059 0.0304106809
      0.00679657236 0.0147980517 0.0234948769 0.00909765437
      -0.00559273921 -0.0300899018 -0.0175773334 0.0266789049
      0.0200722497 0.0160049964 0.0188482907 0.016824767 0.028485449
      -0.00726813124 -0.0388691537 -0.0399950743 0.0136754671
      0.0110638421 -0.000932529336 0.00790360291 0.0272447746
      0.0205451529 -0.00408266345 -0.0570020452 -0.0414343849
      0.00376587058 0.0211042203 -0.00265738834 0.00782901514
      0.0203506518 0.000840932596 -0.00901010446 -0.020042019
      0.000493983156 0.00376105448 -0.00500699133 0.0182421673
      0.0214085151 0.0168538243 0.00122434599 0.00535597233 0.022916615
      0.0119080218 -0.000426095357 -0.00196659286 -0.010094434
      0.0139919696 0.0150778033 -0.0173437353 -0.0094310008
      -0.0339640118 -0.023808267 -0.0332194567 -0.0168164968
      0.00750673516 0.0238855686 0.00348155294 -0.00810710806
      -0.0226125978 -0.00545254024 -0.00162358466 -0.0151260328
      -0.0126961572 0.0148124835 0.0115468819 0.0104539962
      -0.00195075374 0.00587880658 0.0184292346 0.00751757901
      -0.00239765504 0.0049431012 0.0127777047 -0.00455806544
      0.0162754804 0.0280640777 0.0217166469 0.0130822947 0.0153890392
      0.0236990526 -0.0339054465 -0.00174178381 0.00152898766
      -0.0107479664 -0.0153696043 -0.0298458841 -0.008304419
      0.000546722265 -0.0229368061 -0.0201770123 -0.00827822555
      -0.00788421929 -0.00295469724 0.000298189319 -0.00551222824
      0.00792440772 0.017279461 -0.00133672974 0.000803526607
      0.000826066535 -0.0110824108 -0.0063024899 5.10295577e-05
      0.0126869036 0.0165363774 0.0188865736 0.0141397342 0.00101634173
      -0.00885317661 -0.0134652462 -0.00716811419 -0.01086172
      0.00699249096 0.0361760706 0.0209234599 -0.00297517539
      -0.00657275831 -0.00743049895 -0.00137753715 -0.00430374406
      -0.0019293041 0.000415049726 0.0173469 0.0166973006 -0.0105237057
      -0.00682746712 -0.0118860742 -0.00979112554 -0.00295707094
      -0.00272436603 0.000440033851 0.0146042425 0.00657663122
      -0.00800538994 0.00489274831 -0.0158717241 -0.0153976493
      -0.00349277537 -0.00173302472 0.00961225666 0.0308619831
      0.0141079826 0.00232112757 0.00753453979 -0.0270314701
      -0.0165026318 0.0026883604 0.0177131779 0.0159193147 0.0260327291
      0.0122418115 0.00783241354 -0.00645534787 -0.0296069514
      -0.0268127415 -0.00641308213 0.0185983367 0.00994632579
      0.0031363559 -0.00166049111 -0.00382307288 0.0026266817
      -0.0278610699 -0.0213685855 0.00178700313 0.0324236937
      0.0202321019 0.0192746501 0.00918383431 -0.00235404074
      -0.00470728241 -0.0235267617 -0.0125307711 -0.000825526891
      0.00927443523 0.019153839 0.0200637672 0.0178993996 -0.00890691299
      -0.0100589395 -0.0147356829 -0.0161790643 0.00237091142
      0.0467658639 0.0210635159 0.0180326756 0.0120709455 -0.00868089125
      -0.0186723936 -0.0290067848 -0.0305901952 0.00781519338
      0.0270540491 0.0198671967 0.0228746142 0.0138520515 -0.00836774707
      -0.0327717103 -0.0268098172 -0.0217996165 0.00233531278
      0.0408913754 0.0125155225 0.0130316606 0.00925317872 -0.0171891395
      -0.0212007426 -0.016180329 -0.0243190005 -0.00333003164
      0.0452509597 0.00496680383 -0.00287925964 -0.0119124418
      -0.0239255447 0.00300389016 0.00174441282 -0.0137848649
      0.0121779582 0.0171555113 0.00340264756 -5.76326565e-05
      -4.23683559e-05 -0.00247713597 -0.0308626499 -0.0228514392
      -0.0251001455 -0.00629469706 0.023259405 -0.0220334753
      -0.00725987041 -0.00888306927 -0.0361784883 -0.000115232135
      -0.00488453032 -0.00485423021 0.00405683694 -0.00219965004
      -0.0145394001 -0.00610655779 -0.00337383663 -0.005250494
      0.0130705507 -0.000626303081 -0.0129148057 0.00580532663
      0.00634814892 0.00619435869 0.00114164792 0.00292981579
      0.0058226157 0.00490203779 0.00227721152 0.00117646321
      -9.42686383e-05 -0.00294242753 0.00752072036 0.0113914572
      0.0100908745 0.0129908416 0.0126029709 -0.00787656289
      -0.00922344811 -0.00156936876 0.0383974276 -0.00818573777
      -0.00391546637 -0.00211224123 0.000658408389 0.00453904131
      0.00166261313 0.000289197604 -0.0017070499 -0.0128110265
      -0.000425820472 0.0023526079 0.00294133951 0.00301693217
      0.00892666075 0.00177122746 0.000650318747 -0.00231919694
      0.00671051722 0.00814461242 0.0118737724 0.0128518678 0.0191296358
      0. 0. 0. -7.21277829e-05 -0.00370332994 -6.40138023e-05 0. 0. 0.
      0.0049450337 0.00187770021 0.00207931316 -0.000420556229
      -0.00907544885 0.000340761675 0.00419486407 0.00449337112
      0.00373446732 0. 0. 0. -5.49055439e-05 -0.00555628585
      -7.52728301e-05 0. 0. 0. 0. 0. 0. 0. 0. 0. 0. 0. 0. 0. 0. 0. 0. 0.
      0. 0. 0. 0. 0. 0. 0. 0. 0. 0. 0. 0. 0. 0. 0. 0. 0. 0. 0. 0. 0. 0.
      0. 0. 0. 0. 0. 0. 0. 0. 0. 0. 0. 0. 0. 0. 0. 0. 0. 0. 0. 0. 0. 0.
      0. 0. 0. 0. 0. 0. 0. 0. 0. 0. 0. 0. 0. 0. 0.000131318418
      0.000139618322 0.00017187967 0.000136548013 -0.0026471077
      0.000177115959 0. 6.11746009e-06 6.0290844e-05 0.00547521608
      0.00410909997 0.00396130141 0.00129625422 -0.000704836799
      0.0023923323 0.000750060135 0.00399055751 0.00646113371
      4.89520517e-06 7.3381093e-06 0.000238388253 0.000183470693
      -0.00081487128 0.000316113525 0.000104918428 0. 0. 0.00460394146
      0.00627356442 0.0092897974 0.004402922 0.00888140406 0.00575406384
      0.00382821565 0.0030017742 0.00379829598 0.00351008261
      0.00413136045 0.00311323535 -0.000856805942 -0.0127827954
      -0.00100810488 0.000384927262 0.00546494871 0.00422685966
      0.00941480417 0.00754073821 0.00186819024 0.0104328906
      0.0456661433 -0.00932056177 -0.00299421465 0.0132697504
      0.0155134285 0.00473057665 0.00723905256 0.00725442544
      0.0021340989 -0.00442169467 0.00122420397 0.00167642056
      0.00480011338 0.00544324843 0.00914894789 0.014073492
      0.00746768108 0.00289640576 0.0280608106 -0.00879005063
      -0.0131064681 0.0140745919 0.0160622317 0.00865945593
      0.00537048699 0.00415500067 0.00555770751 -0.00101605989
      -0.00694142701 -0.00346854678 0.003690738 0.0111338338
      -0.00613539666 -0.00967194233 -0.00444778474 -0.00176142552
      0.0152312582 -0.00944340881 -0.0138307968 -0.00182176533
      -0.00888256077 0.00235248823 0.0135399848 0.00694724871
      -0.00309263193 0.0016238048 -0.00436409004 -0.0143233044
      -0.0030124886 0.00118684559 -0.00865600538 0.00865509454
      -0.00284416368 -0.0100601548 0.0207259711 -0.0197248049
      -0.0351600274 -0.0206135996 -0.0222630408 -0.00778244762
      -0.00670278491 0.000357723329 -0.00881594885 0.0094894059
      -0.00997867249 -0.00936990324 -0.00412357319 -0.0128328046
      0.00291123521 0.00885197986 0.0146503365 0.00638122903
      0.0130783562 -0.0148198782 -0.0201153383 -0.0285202675
      0.000397683587 -0.0147782182 -0.00511317328 -0.0104395729
      -0.00644759322 0.027624758 0.00505712628 -0.00432872912
      -0.0153711643 -0.0184801035 -0.00921825506 0.00279482873
      0.00265584374 0.0052789622 0.0294230673 0.0201252643
      -0.00610121014 -0.0085370345 -0.00168638944 0.0103538241
      0.0206544623 0.0178296715 0.0144329993 0.0268895384 0.00369011424
      -0.0294184368 -0.0313753262 0.0110426107 -0.00461012684
      0.00580718787 0.014143589 0.0180716682 0.0265748631 -0.00617002649
      -0.0557612814 -0.0498567447 -0.0268326551 0.0112139909
      0.0144601259 0.0112501215 0.0101433583 0.0308288857 0.017983906
      -0.0062181307 -0.00550547102 0.0151536129 0.018383855 0.0118093723
      0.0119344769 0.0226001926 0.0295328908 -0.00923214573
      -0.0231800694 -0.0175456032 -0.00445577409 -0.00186514051
      -0.0033188581 0.0201334469 0.0223961882 0.00531411963
      -0.00886847079 -0.0378100872 -0.025814103 -0.0274590161
      -0.00615121145 0.0109063936 0.0280914716 0.0232541319
      0.00173764012 -0.0118629206 -0.0123464204 -0.00324243074
      -0.0132721178 0.0129667157 0.00143082289 0.0193035025 0.0254284441
      0.0225450657 -0.017511351 -0.0213923454 -0.0123614892
      -0.0117902532 -0.00578668108 0.0111501208 0.0201018788
      0.0189836286 0.0302948281 -0.0115265949 0.000630887749
      -0.00481505878 -0.00559979538 -0.0219061449 0.0109772692
      0.00316056423 0.00176325743 -0.00930811744 -0.0158763397
      -0.0080139786 -0.00235947664 -0.0152182858 -0.00447872886
      0.0100323977 0.00520743849 0.00272039417 0.0114003327
      0.00822082721 0.0196296554 0.0142364474 -0.00695760828
      -0.0181115903 0.00740701891 0.00653179595 -0.00516449427
      0.0314117335 -0.00400275085 0.000869398064 -0.0188347604
      -0.0122423079 0.00493183173 0.0252812225 0.0129864803
      -0.0135983499 0.029288277 0.0196135603 0.0106723802 -0.0142061114
      -0.0053604031 -0.00125251513 0.00324746734 0.00662718015
      -0.00518584484 -0.0101845069 -0.00177664554 0.0118821068
      0.00993076619 -0.0111472849 0.00885457173 -0.010192099
      -0.0136899874 -0.0103423698 -0.0148994289 -0.000818742497
      0.00998756476 0.0101177944 0.0072040516 0.0114613781 0.0238094032
      0.00400907779 -0.0277688839 -0.0051396098 0.00032221229
      0.00855051167 -0.000636018987 0.000217397581 0.0241144598
      0.011157346 -0.00883440208 -0.0180490538 -0.00995614752
      0.00621420052 0.0241990443 0.0171221495 0.0143501461 -0.010305143
      -0.0304101575 -0.038262289 -0.00517159607 -0.00981309451
      0.000992942252 -0.00282584131 0.00223530713 0.000540682697
      -0.0113410978 -0.0216954555 -0.0266491324 0.00898658391
      0.0385969095 0.0165084023 0.0136523526 0.00938968733
      -0.00586894527 0.0252082553 -0.000944117783 -0.0263479259
      -0.0116664898 -0.0105548697 0.00554098934 0.0246761665
      0.0157552268 0.0123186456 0.0265614428 0.00575526757 -0.0154244239
      0.00739548262 0.0211469606 0.0121624991 0.0196801499 0.0212870967
      0.0213811304 -0.0430649593 -0.0355750434 -0.0388017558
      0.00864420738 0.0405237935 0.014438563 0.0155222425 0.0105040474
      -0.0223137792 -0.0462739915 -0.0323867351 -0.0369920693
      0.00195729127 0.0168018341 0.00185798632 0.0136962766 0.0083742002
      -0.0272153951 -0.0050891405 -0.0222213343 -0.0131857917
      0.021981841 0.0406560637 0.0152744278 0.01415978 0.0194068532
      0.0105628259 -0.00380866043 -0.00956817251 -0.0111659812
      0.0159318484 0.0221453533 0.0144319208 0.015750939 0.0143913515
      0.0127446288 -0.0246442687 -0.0103122843 -0.0199863687
      -0.00943220686 0.00766339013 -0.021403173 -0.000250523619
      0.00753241312 -0.0211056732 0.00308156991 -0.00278191105
      0.00215570396 -0.000600753527 -0.0180975143 -0.00954885501
      -0.000100362922 0.00287111243 0.00201759883 -0.00435245084
      -0.00209303922 -0.0131307645 -0.00331732258 0.00532097556
      0.00428433018 0.00399284298 0.0155224688 0.00270893076
      0.0006434237 -0.000988503452 -0.00266230432 -0.00582149019
      -0.0176826026 0.0108902846 0.00801177323 0.00818413123
      0.00446265843 0.00602153642 -0.00179450365 0.00212697033
      0.00119137764 0.0278746188 -0.000215012216 0.00189747172
      -0.00151572935 -0.000249440171 0.0104185091 0.00438032765
      0.00215735612 -0.00213434245 -0.0129663972 0.000765368633
      0.00195563398 0.000632442709 0.00317141088 0.00428008288
      0.000931975432 0.000201813309 -0.00849207956 0.0242496915
      0.0115601057 0.0111499233 0.00310749328 -0.00834335014
      0.0140051711 0.00415213499 0.00106750033 -0.000719196454
      -0.00957266893 0.000452455686 0.00497598387 0.0017782409
      0.00652155699 0.0159169715 0.00615286035 0.00582827628
      -0.000340148807 -0.000963636732 0.00191371236 0.00299454178
      0.00328368694 0.00391326891 0. 0. 0. -7.6190554e-05 -0.00409533642
      -6.45876935e-05 0. 0. 0. 0.0222698711 0.00626699068 0.00391358603
      -4.08197866e-06 -0.000876299746 0.00165492948 0.00404629717
      0.00318172993 0.0060561616 0. 0. 0. -8.17910986e-05 -0.00515988795
      -7.26992148e-05 0. 0. 0. 0. 0. 0. 0. 0. 0. 0. 0. 0. 0. 0. 0. 0. 0.
      0. 0. 0. 0. 0. 0. 0. 0. 0. 0. 0. 0. 0. 0. 0. 0. 0. 0. 0. 0. 0. 0.</_></support_vectors>
  <uncompressed_sv_total>21</uncompressed_sv_total>
  <uncompressed_support_vectors>
    <_>
      0. 0. 0. 0. 0. 0. 0. 0. 0. 0. 0. 0. 0. 0. 0. 0. 0. 0. 0. 0. 0. 0.
      0. 0. 0. 0. 0. 0. 0. 0. 0. 0. 0. 0. 0. 0. 0. 0. 0. 0. 0. 0. 0. 0.
      0. 0. 0. 0. 0. 0. 0. 0. 0. 0. 0. 0. 0. 0. 0. 0. 0. 0. 0. 0. 0. 0.
      0. 0. 0. 0. 0. 0. 0. 0. 0. 0. 0. 0. 0. 0. 0. 0.000371148344
      0.0017620835 0.00181935995 0.0142226648 0.704218447 0.00891183037
      0.00213495898 0.00277835457 0.000626553083 0. 0. 0. 0. 0. 0. 0. 0.
      0. 0.00129604584 0.00189489964 0.00122211059 0.0260617323
      0.704218447 0.0112358453 0.00278791669 0.000964298204
      0.00105545239 0.00599147147 0.00828600861 0.00578300375
      0.0193388816 0.615813673 0.0127469804 0.00626477273 0.00941754971
      0.00567587512 0.0185293648 0.0126077766 0.014581739 0.0119285043
      0.282159418 0.00771868182 0.0102826916 0.012322437 0.0156585947
      0.00926431641 0.00720392447 0.00529375952 0.0305841994 0.615813673
      0.0196598209 0.00815764721 0.00508146593 0.00757831847
      0.0287777819 0.0233997647 0.0184071288 0.0161947198 0.385090679
      0.0184420552 0.0138769243 0.0102181211 0.0313733146 0.00858387537
      0.00402471516 0.0102403173 0.00256042019 0.0100232568
      0.00199752953 0.00267629279 0.00249328231 0.00798368547
      0.0691450015 0.132954746 0.44458589 0.0300174821 0.0163506474
      0.0109831719 0.0136736967 0.00573943276 0.0467203744 0.0104715778
      0.223457098 0.298370153 0.0221329648 0.10593228 0.0456994697
      0.0128804855 0.00472945115 0.0246328469 0.0868749246 0.519603014
      0.519603014 0.121995993 0.174630061 0.113868386 0.0392262638
      0.0133231012 0.0968312025 0.0825214088 0.136574656 0.30458492
      0.0623763055 0.00330321863 0.00320160994 0.0213793181 0.0805354789
      0.0812597498 0.142021596 0.205540478 0.30458492 0.23961997
      0.00576440524 0.000398816628 0.0343316793 0.24109751 0.30458492
      0.0853536204 0.30458492 0.30458492 0.0821122229 0.0375369042
      0.0214189887 0.0216555428 0.0651964843 0.113488883 0.10191521
      0.171613187 0.30458492 0.176291183 0.0748305246 0.0349860117
      0.0232507288 0.146768391 0.291398346 0.286056966 0.18817088
      0.295931309 0.281898081 0.0091866767 0.000994030619 0.036224436
      0.199261546 0.295931309 0.295931309 0.107552893 0.199876249
      0.0752987117 0.0120346658 0.00275222491 0.0507573411 0.115001313
      0.295931309 0.0955168605 0.0560188256 0.166420937 0.140336484
      0.0925839245 0.0296602547 0.0105897188 0.0821694583 0.273300737
      0.19918339 0.0413858965 0.0634405538 0.0443690158 0.221611723
      0.0357157402 0.0130202295 0.0279349834 0.293965101 0.312449783
      0.139066353 0.0269891303 0.00624012155 0.0103963008 0.0026235953
      0.0226826239 0.124067977 0.312449783 0.312449783 0.246710271
      0.0139934197 0.00863210671 0.0375675857 0.016838979 0.196500674
      0.312449783 0.312449783 0.197299197 0.0369210429 0.0251768474
      0.0229529198 0.205588207 0.0399089232 0.0172346774 0.0329831541
      0.265921891 0.243050784 0.0229170118 0.00748733245 0.0146738421
      0.272808075 0.0181000903 0.0435743779 0.139235839 0.240549013
      0.277299196 0.084993653 0.0131777655 0.00483309338 0.0303355604
      0.0261873435 0.280897439 0.28978163 0.256457448 0.217903405
      0.0387066156 0.00792024191 0.0207165405 0.0198196396 0.0361551568
      0.28978163 0.28978163 0.187592164 0.195351869 0.0122561194
      0.00646775216 0.0155840237 0.200405672 0.0213639718 0.121079423
      0.2350045 0.196142897 0.139781058 0.0209364425 0.0107239531
      0.0404572263 0.0948495865 0.0767001435 0.28978163 0.28978163
      0.189987168 0.133957982 0.0416805781 0.00380981807 0.0282152481
      0.0171406679 0.0215056222 0.344725221 0.344725221 0.137106493
      0.0454637855 0.0245541856 0.0037829834 0.0112682451 0.00924282707
      0.0174035337 0.255032152 0.163416967 0.106887177 0.119699515
      0.0309773218 0.0189280864 0.0364499316 0.0899843872 0.218453974
      0.344725221 0.344725221 0.152727425 0.0518318601 0.0206851196
      0.0206995737 0.00827784836 0.0413039364 0.172010511 0.344725221
      0.344725221 0.0781058297 0.0650144815 0.0253550485 0.0174318198
      0.019820001 0.0342532583 0.0599242933 0.313582897 0.257296622
      0.168334201 0.0220559333 0.0102136666 0.0225133523 0.0185763184
      0.0486305989 0.0915936008 0.117055379 0.178401873 0.0935254171
      0.0692562982 0.0189085603 0.0199085455 0.0154107921 0.0698059052
      0.172658101 0.387502342 0.387502342 0.187735379 0.0226358343
      0.00602429546 0.0149999894 0.0224993527 0.0536171123 0.169891834
      0.387502342 0.378087968 0.155865699 0.0210056268 0.0114368014
      0.0268304534 0.131995723 0.208718881 0.185579434 0.214078873
      0.286254793 0.123490438 0.0123086283 0.00822094548 0.0211560559
      0.203752831 0.369130135 0.0768715739 0.0987515897 0.102254972
      0.0317397229 0.0446989425 0.0183178298 0.03504261 0.0915669277
      0.135009453 0.215040267 0.369130135 0.369130135 0.254480511
      0.024693897 0.0298799258 0.0432569422 0.0808022767 0.250976175
      0.0818594471 0.195862919 0.121685334 0.0675006807 0.00698039634
      0.00967507064 0.0250889491 0.239456996 0.837966383 0.0353249349
      0.0364043526 0.0178033113 0.00612121681 0. 0. 0. 0. 0. 0. 0. 0. 0.
      0.0156551637 0.0355818123 0.0491472892 0.0709667057 0.457608968
      0.0429244079 0.074401319 0.0247319676 0.0153845791 0. 0. 0. 0. 0.
      0. 0. 0. 0. 0. 0. 0. 0. 0. 0. 0. 0. 0. 0. 0. 0. 0. 0. 0. 0. 0. 0.
      0. 0. 0. 0. 0. 0. 0. 0. 0. 0. 0. 0. 0. 0. 0. 0. 0. 0. 0. 0. 0. 0.
      0. 0. 0. 0. 0. 0. 0. 0. 0. 0. 0. 0. 0. 0. 0. 0. 0. 0. 0. 0. 0. 0.
      0. 0. 0. 0. 0. 0. 0. 0. 0. 0. 0. 0. 0. 0. 0. 0. 0. 0. 0. 0. 0. 0.
      0. 0. 0. 0. 0. 0. 0. 0. 0. 0. 0. 0. 0. 0. 0. 0. 0. 0. 0. 0. 0. 0.
      0. 0. 0. 0. 0. 0. 0. 0. 0. 0. 0. 0. 0. 0. 0. 0. 0. 0. 0. 0. 0. 0.
      0. 0. 0. 0. 0. 0. 0. 0. 0. 0. 0. 0. 0. 0. 0. 0. 0. 0. 0. 0. 0. 0.
      0. 0. 0. 0.00136258313 0.000514724641 0.000684163184 0.0186497699
      0.703849018 0.0117494473 0.00255641108 0.000652760791
      0.00120243477 0. 0. 0. 0. 0. 0. 0. 0. 0. 0.00351468124
      0.00473677227 0.00256436062 0.0388111323 0.703849018 0.0104598282
      0.00088265317 0.000897985534 0.00341070839 0.00398195907
      0.00131242524 0.00155792595 0.0102167502 0.376589179 0.0108547946
      0.003851149 0.0022956254 0.00418903679 0.0128943725 0.0752742514
      0.116263762 0.0770109147 0.24856171 0.0468652025 0.00543085253
      0.00449015805 0.0213907138 0.00663990201 0.0106473435 0.0057918136
      0.0237191692 0.376589179 0.0112925302 0.00155662466 0.00428809365
      0.00676468061 0.0208433494 0.376589179 0.292383879 0.324424744
      0.376589179 0.376589179 0.0669420362 0.00741305342 0.0208752882
      0.0034524349 0.21573855 0.269963741 0.0595715567 0.130862936
      0.0960588977 0.0125550935 0.000958031102 0.0102005098 0.0238502044
      0.280100197 0.280100197 0.0950489789 0.165990889 0.149669424
      0.0342415534 0.0063279788 0.0153007377 0.0111382259 0.280100197
      0.280100197 0.193820328 0.280100197 0.258498758 0.0456508212
      0.000430886546 0.00562344026 0.0371654816 0.280100197 0.280100197
      0.196480155 0.220516056 0.196341172 0.057825774 0.01240086
      0.0108139515 0.106385589 0.29469046 0.29469046 0.124277852
      0.213188872 0.107934341 0.0788275599 0.04205117 0.118813187
      0.150401354 0.0827993378 0.201664478 0.0761756375 0.29469046
      0.165361315 0.0456910953 0.0578562468 0.29469046 0.178484753
      0.118369542 0.197451711 0.205401331 0.27046892 0.154602453
      0.108549938 0.0647427365 0.136504814 0.158248723 0.0162028316
      0.0191523973 0.066492334 0.258594751 0.133025512 0.0405296385
      0.0587965809 0.237758189 0.130066425 0.0273511354 0.0391202495
      0.0489322767 0.321940631 0.137331203 0.00788716972 0.0312668905
      0.231627777 0.342297584 0.0760615841 0.0444437489 0.0888937414
      0.342297584 0.187222406 0.0488114282 0.0446566455 0.342297584
      0.0648852587 0.00774055952 0.0094544068 0.0165733788 0.161557972
      0.0727333874 0.0055681169 0.0186337475 0.104791552 0.322722763
      0.0695234984 0.0353573225 0.0657574087 0.342297584 0.11642167
      0.032458663 0.0217050053 0.311463624 0.338585675 0.0935848653
      0.0315581709 0.0826031417 0.338585675 0.209272623 0.0788667426
      0.0337536037 0.338585675 0.188304171 0.0175493006 0.00689621968
      0.0163654126 0.338585675 0.0436104238 0.0269977059 0.0167586692
      0.21759966 0.292588472 0.102605738 0.0287063234 0.0740885213
      0.338585675 0.111793689 0.0545242243 0.0234210715 0.334020466
      0.120754339 0.0530349351 0.00705189677 0.00791895576 0.10737747
      0.019431062 0.0278449729 0.0148928305 0.094295375 0.20444797
      0.0122767054 0.0123831658 0.048752591 0.271823108 0.0315635726
      0.0452239215 0.0419643857 0.224000216 0.271823108 0.0274347477
      0.0525172241 0.170349434 0.271823108 0.197526097 0.271823108
      0.271823108 0.271823108 0.160983771 0.0538846701 0.0182361025
      0.0514347404 0.187158391 0.0274223387 0.0346508995 0.0490130223
      0.152197793 0.266387373 0.0729456544 0.12196973 0.15895392
      0.271823108 0.0765626729 0.0992359519 0.0932520479 0.271823108
      0.0960177705 0.00838075671 0.024660239 0.0478469059 0.168381363
      0.261336863 0.290395647 0.288051695 0.121007785 0.0164893325
      0.00606342452 0.0163860191 0.0236758702 0.131219536 0.290395647
      0.290395647 0.280721575 0.0138554163 0.0957290977 0.0108393878
      0.0382691026 0.061820697 0.196071118 0.105936252 0.177464247
      0.0818829536 0.0981717259 0.0745415092 0.00278089824 0.0715379268
      0.111839719 0.290395647 0.290395647 0.290395647 0.216778561
      0.0711428598 0.0118963849 0.00461932505 0.0128468629 0.0143097276
      0.107547753 0.246822894 0.295864314 0.275880069 0.0178769864
      0.0048790779 0.00153084414 0.00896385405 0.00542943319
      0.0576744638 0.186466277 0.295864314 0.221669152 0.0314630382
      0.0440343395 0.00398095418 0.0911715254 0.0986351594 0.295864314
      0.295864314 0.295864314 0.21558705 0.0634833351 0.00232973625
      0.00297301682 0.0197043549 0.0227202307 0.180765882 0.295864314
      0.295864314 0.205609813 0.0104885632 0.0187375098 0.0041861427
      0.00738221966 0.0273841973 0.0986384824 0.249075115 0.364313155
      0.240493983 0.0906687304 0.0149100879 0.00672507379 0.0076882313
      0.0215517543 0.115419984 0.0808827952 0.144549027 0.0484155975
      0.036806196 0.00781162875 0.00186523225 0.00902197603 0.0403238349
      0.307597071 0.364313155 0.364313155 0.318216532 0.0193204451
      0.00505861174 0.000190326929 0.000722577272 0.0298941471
      0.280030578 0.258689553 0.259399503 0.0470645465 0.0125500783
      0.021401925 0.0142557444 0.0140052699 0.00854099635 0.352163166
      0.108291782 0.123908676 0.0131835369 0.0288898963 0. 0. 0. 0. 0.
      0. 0. 0. 0. 0.00478660315 0. 0. 0.0401805565 0.845333397
      0.297558457 0.178304419 0.00723617757 0.0152625339 0. 0. 0. 0. 0.
      0. 0. 0. 0. 0. 0. 0. 0. 0. 0. 0. 0. 0. 0. 0. 0. 0. 0. 0. 0. 0. 0.
      0. 0. 0. 0. 0. 0. 0. 0. 0. 0. 0. 0. 0. 0. 0. 0. 0. 0. 0. 0. 0. 0.
      0. 0. 0. 0. 0. 0. 0. 0. 0. 0. 0. 0. 0. 0. 0. 0. 0. 0. 0. 0. 0. 0.
      0. 0. 0. 0. 0. 0. 0. 0. 0. 0. 0. 0. 0. 0. 0. 0. 0. 0. 0. 0. 0. 0.
      0. 0. 0. 0. 0. 0. 0. 0. 0. 0. 0. 0. 0. 0. 0. 0. 0. 0. 0. 0. 0. 0.
      0. 0. 0. 0. 0. 0. 0. 0. 0. 0. 0. 0. 0. 0. 0. 0. 0. 0. 0. 0. 0. 0.
      0. 0. 0. 0. 0. 0. 0. 0. 0. 0. 0. 0. 0. 0. 0. 0. 0. 0. 0. 0. 0. 0.
      0. 0. 0. 0.0604929365 0.0191684514 0.00715656579 0.0808210075
      0.536567867 0.0302772988 0.0813551545 0.0503682196 0.00810593367
      0. 0. 0. 0. 0. 0. 0. 0. 0. 0.31778419 0.136696294 0.125009835
      0.132263511 0.536567867 0.118485555 0.341008067 0.30839619
      0.140911445 0.0406586863 0.0182249863 0.0110105975 0.0260576643
      0.267697543 0.0187912323 0.0279235411 0.0189770795 0.0167659633
      0.107981518 0.287965447 0.133366585 0.108264275 0.287965447
      0.287965447 0.0734554604 0.0263026915 0.0279690549 0.147892714
      0.0778069869 0.0529535078 0.0704357177 0.269112408 0.124538422
      0.143229082 0.107854754 0.0972404853 0.258843362 0.287965447
      0.143531561 0.195040733 0.287965447 0.287965447 0.217491224
      0.143566757 0.128597364 0.0740164891 0.284839183 0.196669653
      0.180114955 0.284839183 0.284839183 0.0973147377 0.0113419835
      0.00665630586 0.0608010665 0.198448613 0.136605665 0.202753767
      0.278034091 0.146757573 0.0989378393 0.044155173 0.0347846039
      0.140444517 0.284839183 0.0993381739 0.159433469 0.284839183
      0.284839183 0.119299635 0.0552170537 0.0280222371 0.0827118903
      0.113065228 0.0321755037 0.118940242 0.284839183 0.0928385034
      0.0747212246 0.0669016093 0.0421531424 0.242264345 0.0845389664
      0.0382684171 0.207546681 0.250299722 0.221625313 0.102604583
      0.125250682 0.237394378 0.224492073 0.0819179937 0.00682409573
      0.115404166 0.250299722 0.187323645 0.0174634159 0.0765202343
      0.212647125 0.213826805 0.0922253206 0.0120370369 0.0927010924
      0.250299722 0.165054217 0.0685792118 0.121840782 0.249383956
      0.230812699 0.0811925605 0.00660387939 0.0765161663 0.250299722
      0.204484746 0.027867293 0.0702453405 0.250299722 0.111056194
      0.0484736376 0.0152381863 0.0404071435 0.17647706 0.0875904262
      0.00958149973 0.00190928055 0.071564585 0.0834570453 0.0237202346
      0.0164497327 0.0227294005 0.0362850875 0.0217383318 0.00978111289
      0.00836214703 0.0348112397 0.337030023 0.0631095916 0.0486059226
      0.145705476 0.337030023 0.337030023 0.12935029 0.0291824192
      0.337030023 0.337030023 0.0716232955 0.0634470433 0.219040737
      0.337030023 0.145190775 0.0715624318 0.0308334418 0.337030023
      0.0449103005 0.0425799973 0.0234219115 0.0197664276 0.0685797259
      0.0291657001 0.0149358604 0.00417943066 0.0125167361 0.212007105
      0.144402876 0.0835005865 0.032848537 0.141108602 0.0917527378
      0.185721338 0.0448469706 0.117430709 0.120006956 0.252760917
      0.207827345 0.135646164 0.275368601 0.144163534 0.0419566408
      0.023941813 0.131896481 0.280008316 0.280008316 0.280008316
      0.20839107 0.280008316 0.280008316 0.280008316 0.191650093
      0.164922506 0.17080611 0.0744132921 0.0404711701 0.0246733427
      0.105377123 0.0903676748 0.264275014 0.0885378197 0.141568303
      0.0980307609 0.0248684641 0.0332496502 0.0314138122 0.166934803
      0.0509458333 0.089724578 0.0394591168 0.0929410756 0.261797637
      0.198301241 0.264275014 0.239372805 0.264275014 0.250926584
      0.264275014 0.264275014 0.233326957 0.145211041 0.0737006664
      0.101239368 0.151856646 0.264275014 0.170174092 0.136458978
      0.127563328 0.164089173 0.164366066 0.0115269516 0.0234660581
      0.0446907133 0.27858144 0.0305712596 0.0314795859 0.0126998555
      0.133408993 0.275754124 0.00930052157 0.155776143 0.144350097
      0.295389771 0.143207178 0.295389771 0.10147839 0.235482454
      0.223229378 0.0421626717 0.0266063511 0.0622149445 0.295389771
      0.064564757 0.0150910402 0.0305841044 0.158841193 0.295389771
      0.0560114346 0.0949933231 0.146562114 0.295389771 0.139545172
      0.0989845246 0.132534146 0.242626503 0.119593032 0.00566916307
      0.155361861 0.133083448 0.31371817 0.163234368 0.31371817
      0.123445213 0.145702675 0.00640461827 0.0181648359 0.0414917469
      0.0564371534 0.169824064 0.167538419 0.185044006 0.116435394
      0.0312500261 0.117141917 0.0403901041 0.127163827 0.171642795
      0.31371817 0.206308633 0.180475995 0.262306571 0.121562399
      0.0629905984 0.140029922 0.207260951 0.151276797 0.31371817
      0.135672197 0.138538077 0.145963684 0.0700338483 0.0154616283
      0.0329970196 0.0285762325 0.067348659 0.131424785 0.245210975
      0.261704475 0.193513975 0.103093289 0.00739721954 0.0111443326
      0.0040020356 0.032613717 0.186167464 0.135819376 0.144922912
      0.108584791 0.0818218067 0.113888673 0.212951854 0.211430103
      0.187384486 0.254854053 0.203464746 0.261704475 0.261704475
      0.227213129 0.039009504 0.0667964295 0.0444271192 0.0881695673
      0.261704475 0.223280132 0.212021977 0.261704475 0.149271578 0. 0.
      0. 0.0166252237 0.513122261 0.156704783 0.125610754 0.110156827
      0.0432727039 0. 0. 0. 0. 0. 0. 0. 0. 0. 0.0127028553 0.00200542272
      0.0310413279 0.0557480194 0.618221462 0.354796439 0.239736408
      0.319584042 0.0631864667 0. 0. 0. 0. 0. 0. 0. 0. 0. 0. 0. 0. 0. 0.
      0. 0. 0. 0. 0. 0. 0. 0. 0. 0. 0. 0. 0. 0. 0. 0. 0. 0. 0. 0. 0. 0.
      0. 0. 0. 0. 0. 0. 0. 0. 0. 0. 0. 0. 0. 0. 0. 0. 0. 0. 0. 0. 0. 0.
      0. 0. 0. 0. 0. 0. 0. 0. 0. 0. 0. 0. 0. 0. 0. 0. 0. 0. 0. 0. 0. 0.
      0. 0. 0. 0. 0. 0. 0. 0. 0. 0. 0. 0. 0. 0. 0. 0. 0. 0. 0. 0. 0. 0.
      0. 0. 0. 0. 0. 0. 0. 0. 0. 0. 0. 0. 0. 0. 0. 0. 0. 0. 0. 0. 0. 0.
      0. 0. 0. 0. 0. 0. 0. 0. 0. 0. 0. 0. 0. 0. 0. 0. 0. 0. 0. 0. 0. 0.
      0. 0. 0. 0. 0. 0. 0. 0. 0. 0. 0. 0. 0. 0. 0. 0. 0.263757497
      0.303567588 0.25931704 0.170427188 0.392392099 0.0730290115
      0.168475479 0.275618047 0.188601613 0. 0. 0. 0. 0. 0. 0. 0. 0.
      0.151163951 0.219916493 0.179210439 0.233379394 0.392392099
      0.139076024 0.130350068 0.22595112 0.199219406 0.120133899
      0.108718716 0.072577253 0.0654109344 0.199348062 0.0828778148
      0.0836289749 0.112089239 0.130819187 0.130344167 0.128205985
      0.0687875226 0.12204735 0.311567992 0.311567992 0.152320534
      0.174207166 0.168162927 0.12072175 0.121390834 0.0914844945
      0.104873821 0.252952069 0.0744725019 0.0676943213 0.127188399
      0.128357112 0.154802546 0.160352275 0.161569074 0.303974271
      0.311567992 0.229990825 0.0948905051 0.216840386 0.13841401
      0.0678085983 0.0802892372 0.048554562 0.144709632 0.357367039
      0.332863182 0.0986140519 0.0822512954 0.0469935648 0.0825630501
      0.0600600056 0.0404068306 0.0947934762 0.356462687 0.0994457752
      0.0296394341 0.033077985 0.0150004104 0.0421405621 0.0558386855
      0.110641263 0.327641964 0.357367039 0.288259208 0.0599811599
      0.146405295 0.0337195583 0.0441620275 0.0409381799 0.0457250699
      0.0916801244 0.338084728 0.197726101 0.0750665441 0.096629791
      0.0270987526 0.160608098 0.0718639567 0.037187878 0.0652697831
      0.315302879 0.0948169827 0.0220916495 0.0426282026 0.118664175
      0.193645597 0.0280994531 0.0145970043 0.0798654035 0.315302879
      0.249474734 0.0358809792 0.0248669274 0.315302879 0.125910684
      0.0581151769 0.096180737 0.077734381 0.250376701 0.162838504
      0.100141861 0.0883607194 0.0992498919 0.232979625 0.0791947916
      0.143348828 0.120026946 0.315302879 0.26546964 0.0829647854
      0.0669929311 0.315302879 0.0994310156 0.0143720414 0.00940269232
      0.0496279001 0.269835055 0.115637682 0.0202158839 0.0104155811
      0.201780558 0.254486233 0.0636557192 0.0642834157 0.112520903
      0.285865963 0.103941105 0.0154212061 0.0200867541 0.279222131
      0.0998661369 0.140636325 0.202337354 0.0843561143 0.285865963
      0.136718124 0.0175701864 0.0276398584 0.198191345 0.223284155
      0.285865963 0.285865963 0.123981841 0.285865963 0.131433189
      0.0126228901 0.0280183051 0.2305841 0.20246385 0.230511561
      0.250245541 0.165577307 0.252242893 0.113549478 0.023687195
      0.0609776117 0.203196362 0.145824865 0.264439911 0.264439911
      0.165311188 0.159563214 0.157637492 0.0982961729 0.0947319642
      0.105302624 0.184798166 0.264439911 0.264439911 0.101899572
      0.222316951 0.0842249319 0.0111048911 0.0636903569 0.20576857
      0.0825526714 0.163644612 0.248918414 0.0940675214 0.107415952
      0.0596552566 0.0251237769 0.0462890491 0.11364235 0.200600088
      0.172664359 0.272172898 0.243680835 0.272172898 0.206520945
      0.137677372 0.149368852 0.178582534 0.112745695 0.115334451
      0.132987708 0.184518814 0.272172898 0.199760497 0.0537419803
      0.128864914 0.136484459 0.113235652 0.0752655566 0.118720144
      0.128067687 0.238229319 0.11534594 0.0565390736 0.0428276695
      0.121059544 0.187508166 0.0599777624 0.158508137 0.177907631
      0.272172898 0.184730366 0.0553023256 0.104874097 0.132326409
      0.15885748 0.0706414953 0.0506151468 0.117842011 0.30502066
      0.0838442668 0.0285948366 0.0523602106 0.127375603 0.193992615
      0.0725694895 0.0291032027 0.147888035 0.30502066 0.135935649
      0.0573299192 0.063411139 0.154431105 0.2443863 0.0749056712
      0.109800242 0.21266973 0.30502066 0.127803579 0.0499126948
      0.0531491674 0.15195927 0.271274567 0.20670709 0.0527025238
      0.260441989 0.30502066 0.197258472 0.0855300277 0.0474316552
      0.182477772 0.0417990908 0.0409990251 0.0452741012 0.118464679
      0.344464928 0.164981991 0.0718099549 0.0815851539 0.0344773345
      0.0658584684 0.124032609 0.163543433 0.114100382 0.344464928
      0.111266375 0.202851743 0.103469774 0.0495619625 0.0869287625
      0.232981339 0.051691018 0.168962583 0.344464928 0.189720646
      0.089771919 0.0333945155 0.0418704599 0.0711082742 0.104502089
      0.0997334793 0.116002195 0.344464928 0.184037149 0.276304156
      0.193906933 0.0940802917 0.103855081 0.186178982 0.124315321
      0.108495735 0.24438107 0.103036217 0.206035256 0.181069195
      0.109536983 0.0530697741 0.11083319 0.0336146988 0.0636439174
      0.267032027 0.0986579955 0.0849483609 0.142508 0.0532583222
      0.183168277 0.213357314 0.0741260722 0.175816789 0.267032027
      0.175727293 0.261484355 0.240215629 0.240158364 0.144084319
      0.267032027 0.0202729199 0.148608878 0.267032027 0.0900535211
      0.0844397247 0.117592983 0.138015762 0.0455003083 0.0964508355
      0.0216915198 0.0390522182 0.584015727 0.158442423 0.0845358968
      0.165801883 0.0200664625 0. 0. 0. 0. 0. 0. 0. 0. 0. 0.117446914
      0.405701935 0.00977423415 0.103395842 0.584015727 0.116514824
      0.090346545 0.143255249 0.0841039717 0. 0. 0. 0. 0. 0. 0. 0. 0. 0.
      0. 0. 0. 0. 0. 0. 0. 0. 0. 0. 0. 0. 0. 0. 0. 0. 0. 0. 0. 0. 0. 0.
      0. 0. 0. 0. 0. 0. 0. 0. 0. 0. 0. 0. 0. 0. 0. 0. 0. 0. 0. 0. 0. 0.
      0. 0. 0. 0. 0. 0. 0. 0. 0. 0. 0. 0. 0. 0. 0. 0. 0. 0. 0. 0. 0. 0.
      0. 0. 0. 0. 0. 0. 0. 0. 0. 0. 0. 0. 0. 0. 0. 0. 0. 0. 0. 0. 0. 0.
      0. 0. 0. 0. 0. 0. 0. 0. 0. 0. 0. 0. 0. 0. 0. 0. 0. 0. 0. 0. 0. 0.
      0. 0. 0. 0. 0. 0. 0. 0. 0. 0. 0. 0. 0. 0. 0. 0. 0. 0. 0. 0. 0. 0.
      0. 0. 0. 0. 0. 0. 0. 0. 0. 0. 0. 0. 0. 0. 0. 0. 0. 0. 0. 0.
      0.123446889 0.0638075024 0.170016572 0.207901537 0.580228508
      0.264028639 0.0660529584 0.0769473463 0.132773727 0. 0. 0. 0. 0.
      0. 0. 0. 0. 0.0633605421 0.0468490273 0.118390717 0.259287894
      0.580228508 0.202156216 0.0257979184 0.0262764208 0.0461946651
      0.122531809 0.0736430362 0.0817569271 0.0951440409 0.255890846
      0.115956292 0.042988874 0.0636904314 0.0798157528 0.179022267
      0.126710966 0.189198151 0.277276725 0.277276725 0.277276725
      0.109145299 0.277276725 0.0915707052 0.0504768305 0.0237981714
      0.0341135673 0.0639285967 0.277276725 0.077654548 0.028781414
      0.0258476585 0.0451959781 0.072736755 0.0276548229 0.0730432943
      0.256169617 0.277276725 0.225211442 0.277276725 0.277276725
      0.0702039897 0.0293343104 0.0387768485 0.094744496 0.262279212
      0.262279212 0.19566901 0.0933044329 0.262279212 0.0223894343
      0.0208263565 0.0406844132 0.0409053452 0.0730667934 0.262279212
      0.155211344 0.0889631733 0.105717592 0.0589102395 0.0153493648
      0.0146845914 0.0860092491 0.262279212 0.262279212 0.223867118
      0.262279212 0.262279212 0.0172427706 0.104299709 0.0375395603
      0.0673806295 0.135785967 0.262279212 0.223095253 0.260312706
      0.203103647 0.106608741 0.0875763744 0.0504571013 0.0890882313
      0.0217566714 0.227439895 0.0758932978 0.0808536038 0.0563088357
      0.160341352 0.14284645 0.123126939 0.191373691 0.0537374318
      0.251927763 0.0586042143 0.101568349 0.058822345 0.195988312
      0.253309637 0.109265164 0.167957857 0.049398534 0.283451289
      0.129084662 0.118871711 0.0947434008 0.283451289 0.224968657
      0.283451289 0.283451289 0.0789512619 0.283451289 0.07451386
      0.0988051221 0.075204514 0.255747795 0.0870304555 0.280520976
      0.365638971 0.1006485 0.138767272 0.073225759 0.0312401112
      0.0354754031 0.0568972491 0.0642828643 0.365638971 0.365638971
      0.0702700764 0.0832903683 0.0434385054 0.00752157206 0.0135152126
      0.0287997704 0.0796250775 0.344883323 0.365638971 0.0828721672
      0.0928073451 0.0354546048 0.0205566864 0.0251528732 0.0353414938
      0.0611168854 0.1723167 0.365638971 0.0386326052 0.0461914279
      0.01906907 0.00753464457 0.00987438951 0.023214424 0.113943316
      0.549092174 0.549092174 0.0525056832 0.183913171 0.0717506632
      0.00760200527 0.0291323289 0.186822385 0.0566551946 0.102028742
      0.194697946 0.0429529212 0.0888699144 0.0163927767 0.0076196962
      0.0172018372 0.135338247 0.127614737 0.121180117 0.363319188
      0.0178373493 0.163757443 0.0645026043 0.0629297346 0.00343968649
      0.135067895 0.0298328456 0.00609311415 0.00724304235 0.00434117205
      0.0306493063 0.0176028498 0.0343376994 0.00407609437 0.029280562
      0.0865566656 0.0143226488 0.0292934049 0.0514521264 0.138524219
      0.0381409861 0.0251702555 0.0177405309 0.093734093 0.38492617
      0.0177005436 0.167225391 0.13691166 0.38492617 0.169501647
      0.0484727956 0.067651622 0.210311979 0.109335683 0.00239341194
      0.00289148255 0.0130130732 0.194080591 0.000857654843
      0.00630816119 0.00697214762 0.0825398788 0.38492617 0.00511072855
      0.00658178609 0.0359690413 0.38492617 0.161798596 0.0158083402
      0.0482031964 0.38492617 0.186069638 0.0221460015 0.0630623624
      0.0790378302 0.226754069 0.094823949 0.0315730982 0.0220837705
      0.109864011 0.216803268 0.284987241 0.0870890394 0.142813995
      0.284987241 0.26176551 0.150501192 0.0405963846 0.120510101
      0.133520439 0.0435676277 0.0423169285 0.0331278704 0.241006613
      0.107326008 0.0259173997 0.0270401742 0.214664057 0.0822309107
      0.284987241 0.234945506 0.190856725 0.284987241 0.284987241
      0.215421557 0.0201099813 0.0673650429 0.119926013 0.292562902
      0.0655536875 0.120732039 0.292562902 0.249492124 0.198093742
      0.0344829932 0.0309236869 0.0602297075 0.134419575 0.087903969
      0.126031101 0.26666823 0.157397211 0.13424699 0.132997006
      0.0711529776 0.0613569617 0.292562902 0.162782401 0.137647808
      0.292562902 0.292562902 0.240372539 0.0152349509 0.0155147631
      0.0353141651 0.133590221 0.226225957 0.164924815 0.167993084
      0.107816778 0.0569697618 0.0428288691 0.0199316684 0.147263065
      0.212594882 0.155849114 0.25092718 0.255582124 0.224199146
      0.18932873 0.244265258 0.255582124 0.113813877 0.255582124
      0.0759645998 0.195948541 0.255582124 0.095205605 0.118935511
      0.156769633 0.18890281 0.0426982939 0.16157043 0.255582124
      0.255582124 0.132745802 0.0922883749 0.0417183638 0.0568433926
      0.0500764437 0.0197387394 0.121893816 0.215970054 0.102612749
      0.152907819 0.0452519357 0.0420106612 0.0453422479 0.0423501246
      0.121963762 0.464544356 0.0774963722 0.235544115 0.562014937
      0.0498345755 0.147579908 0.251948595 0.19675231 0. 0. 0. 0. 0. 0.
      0. 0. 0. 0.0289466791 0.159427926 0.159473434 0.103822581
      0.426908374 0.0252873022 0.0621111058 0.0835492089 0.0609606132 0.
      0. 0. 0. 0. 0. 0. 0. 0. 0. 0. 0. 0. 0. 0. 0. 0. 0. 0. 0. 0. 0. 0.
      0. 0. 0. 0. 0. 0. 0. 0. 0. 0. 0. 0. 0. 0. 0. 0. 0. 0. 0. 0. 0. 0.
      0. 0. 0. 0. 0. 0. 0. 0. 0. 0. 0. 0. 0. 0. 0. 0. 0. 0. 0. 0. 0. 0.
      0. 0. 0. 0. 0. 0. 0. 0. 0. 0. 0. 0. 0. 0. 0. 0. 0. 0. 0. 0. 0. 0.
      0. 0. 0. 0. 0. 0. 0. 0. 0. 0. 0. 0. 0. 0. 0. 0. 0. 0. 0. 0. 0. 0.
      0. 0. 0. 0. 0. 0. 0. 0. 0. 0. 0. 0. 0. 0. 0. 0. 0. 0. 0. 0. 0. 0.
      0. 0. 0. 0. 0. 0. 0. 0. 0. 0. 0. 0. 0. 0. 0. 0. 0. 0. 0. 0. 0. 0.
      0. 0. 0. 0. 0. 0. 0. 0.0124843623 0.00682245567 0.00291321822
      0.0897971764 0.700701594 0.0471982323 0.00549998041 0.00946594402
      0.00541343819 0. 0. 0. 0. 0. 0. 0. 0. 0. 0.00100877055
      0.000220623202 0.000815585547 0.0162006002 0.700701594
      0.0106054628 0.00166238495 0.00274910429 0.0012409084 0.0352199562
      0.00938186422 0.00731847528 0.0639179125 0.386863381 0.0398284271
      0.0209223181 0.0193745475 0.0250770263 0.0531277917 0.011809459
      0.0511085093 0.302786827 0.386863381 0.174258217 0.386863381
      0.339261919 0.0597207956 0.00791147538 0.00041349142 0.00176970579
      0.0132411774 0.386863381 0.00721094897 0.00379120302 0.00454011885
      0.00607783208 0.0236828104 0.00151892321 0.00643129693
      0.0816589519 0.31698063 0.0316938385 0.159563884 0.0712134913
      0.055226285 0.0132427374 0.00320113078 0.0418441519 0.158141032
      0.236791432 0.162349731 0.305427998 0.2359602 0.0457353368
      0.076550886 0.0182353593 0.0435022898 0.11190825 0.170182467
      0.239481166 0.305427998 0.233602002 0.0902518854 0.0193650089
      0.00395488739 0.00838371273 0.084328413 0.126559779 0.16117616
      0.305427998 0.138238832 0.0781631619 0.0330587476 0.024207674
      0.0225885883 0.10237515 0.0963113457 0.297594875 0.305427998
      0.305427998 0.0918845013 0.172575563 0.158581138 0.234217674
      0.0568107292 0.202915221 0.134276301 0.181240365 0.0916664377
      0.155593336 0.129531607 0.300210834 0.300210834 0.0556220263
      0.160350472 0.0752562955 0.0465448275 0.0336834937 0.137893155
      0.0620576963 0.13717784 0.143398985 0.0635397211 0.0438328497
      0.164190322 0.300210834 0.300210834 0.0958695635 0.10488686
      0.18442893 0.27011314 0.0422015451 0.124264866 0.112683982
      0.221125424 0.115496993 0.172560275 0.0749645606 0.30039835
      0.30039835 0.053095255 0.115378566 0.0411150865 0.0212583933
      0.0179583058 0.0713246018 0.172670364 0.0465490595 0.125592709
      0.0556648001 0.30039835 0.112722695 0.0546403453 0.100836538
      0.204624176 0.139134198 0.0715005472 0.147475377 0.0348721072
      0.198995918 0.0966258124 0.132929593 0.0991612524 0.236532673
      0.30039835 0.0249965861 0.0292747952 0.255775064 0.30039835
      0.167004988 0.088570796 0.158790514 0.30039835 0.244013175
      0.0239979345 0.0118660722 0.0754163638 0.307077646 0.140605256
      0.136381522 0.168778375 0.271968424 0.0585197285 0.0115120383
      0.00457578572 0.0176926237 0.156469509 0.0376605541 0.0618999191
      0.0411333255 0.0490730703 0.307077646 0.0539661534 0.0254825857
      0.307077646 0.307077646 0.172745168 0.12958622 0.231713861
      0.307077646 0.216799751 0.0324896351 0.0126253003 0.0726366192
      0.307077646 0.0530959442 0.0632732958 0.0722782984 0.131269246
      0.0700484738 0.00243083155 0.00417795638 0.010733908 0.134544268
      0.00164842769 0.00305936928 0.0049837972 0.056669496 0.336158454
      0.0261924379 0.0540310852 0.0366346948 0.336158454 0.17892696
      0.0205161273 0.0671602935 0.336158454 0.127779394 0.0205116719
      0.074380666 0.0408358425 0.116120577 0.0303635709 0.0188869573
      0.040475715 0.126911744 0.280418277 0.271043211 0.336158454
      0.124883018 0.336158454 0.130155116 0.0341829918 0.112016477
      0.329442233 0.115437999 0.12390352 0.167578921 0.034786351
      0.269983947 0.166741133 0.0375318564 0.0508777574 0.235723585
      0.0304902811 0.300795019 0.300795019 0.116774991 0.223169759
      0.205408543 0.0911955163 0.0164453238 0.0542217493 0.104803935
      0.300795019 0.300795019 0.0771016106 0.174187645 0.102817088
      0.0349681191 0.06673605 0.120915838 0.052124396 0.300795019
      0.300795019 0.0854981691 0.123859778 0.104863368 0.0293747652
      0.0321554914 0.0375587493 0.0333756767 0.301897973 0.301897973
      0.147584185 0.301897973 0.229674414 0.115360394 0.00967594981
      0.019483041 0.026134083 0.213272467 0.301897973 0.181212097
      0.141778156 0.054722704 0.0176235344 0.0246461574 0.00532801868
      0.0830352679 0.301897973 0.301897973 0.0995495245 0.142324716
      0.0805000812 0.0145727694 0.0192654263 0.0239103474 0.117733218
      0.301897973 0.301897973 0.112328924 0.0554513298 0.0189079065
      0.00611738116 0.00588973751 0.0262613632 0.0484829508 0.271147013
      0.341186851 0.291312248 0.136930674 0.0519967563 0.0269012358
      0.0231674016 0.0114441738 0.0273993481 0.0916733444 0.246678814
      0.0779507309 0.25731042 0.0982784405 0.051996164 0.0146587528
      0.0104682529 0.194731891 0.341186851 0.341186851 0.110389672
      0.241951987 0.0852732435 0.0343523063 0.00396490842 0.0569735207
      0.0749704391 0.110130526 0.129418254 0.0206079483 0.341186851
      0.181618959 0.0598998852 0.000711136207 0.0233149547 0.0158075877
      0.0198249649 0.0958436206 0.0329870284 0.629737556 0.155737117
      0.0823958293 0.0232290216 0.012906367 0. 0. 0. 0. 0. 0. 0. 0. 0.
      0.0280106571 0.0307937916 0.0402089506 0.00935619418 0.677506745
      0.287500054 0.0937659591 0.000755858142 0.00996981282 0. 0. 0. 0.
      0. 0. 0. 0. 0. 0. 0. 0. 0. 0. 0. 0. 0. 0. 0. 0. 0. 0. 0. 0. 0. 0.
      0. 0. 0. 0. 0. 0. 0. 0. 0. 0. 0. 0. 0. 0. 0. 0. 0. 0. 0. 0. 0. 0.
      0. 0. 0. 0. 0. 0. 0. 0. 0. 0. 0. 0. 0. 0. 0. 0. 0. 0. 0. 0. 0. 0.
      0. 0. 0. 0. 0. 0. 0. 0. 0. 0. 0. 0. 0. 0. 0. 0. 0. 0. 0. 0. 0. 0.
      0. 0. 0. 0. 0. 0. 0. 0. 0. 0. 0. 0. 0. 0. 0. 0. 0. 0. 0. 0. 0. 0.
      0. 0. 0. 0. 0. 0. 0. 0. 0. 0. 0. 0. 0. 0. 0. 0. 0. 0. 0. 0. 0. 0.
      0. 0. 0. 0. 0. 0. 0. 0. 0. 0. 0. 0. 0. 0. 0. 0. 0. 0. 0. 0. 0. 0.
      0. 0. 0. 0. 0.000684490253 9.46436485e-05 0.000276663923
      0.00868796837 0.704453349 0.00753994845 0.000519363035
      0.000888630573 0.0015744369 0. 0. 0. 0. 0. 0. 0. 0. 0.
      0.00135230774 0.000283331436 0.000819471548 0.017520288
      0.704453349 0.00147127651 0.000766388897 0.00181373465
      0.00263001444 0.00385829876 0.000185729325 0.000595621299
      0.011932509 0.627972305 0.0105825365 0.00247282651 0.00241785473
      0.00564381946 0.0175548978 0.00140109716 0.00370037812
      0.0238555074 0.306290954 0.013064743 0.0167982467 0.0100557348
      0.0341057144 0.00463964045 0.000556011568 0.0016758861
      0.0216683373 0.627972305 0.00363527844 0.00429741107 0.00490199355
      0.00723865908 0.0148495622 0.000900673447 0.00268652686
      0.00908101443 0.326908559 0.00691701099 0.0119558834 0.00696551614
      0.0165067818 0.0132629788 0.00640867371 0.00554498797 0.0417126715
      0.061077565 0.136855289 0.248955041 0.149440661 0.0432143956
      0.0498846211 0.0361275636 0.0160415266 0.0874844342 0.0785145015
      0.371340543 0.478583634 0.478583634 0.114882953 0.00531349983
      0.00122711936 0.00135178131 0.00142105273 0.00720003806
      0.00408646185 0.0229359083 0.0180875398 0.00546282064 0.061046198
      0.0122473026 0.00218316377 0.0178323016 0.0384512991 0.0835729688
      0.33492434 0.358158827 0.0587263815 0.0711945221 0.0379656367
      0.0115035102 0.0446022935 0.059310995 0.127978727 0.272923112
      0.272923112 0.128888264 0.13520287 0.111204542 0.0267204661
      0.0499233976 0.0959646702 0.182935432 0.272923112 0.272923112
      0.181741893 0.112782747 0.0202701185 0.00175849604 0.031638056
      0.0847058222 0.079166688 0.202549711 0.272923112 0.152794093
      0.252864987 0.158835098 0.0321724564 0.0511709005 0.123169541
      0.272923112 0.21618408 0.272923112 0.272923112 0.149320275
      0.126870766 0.0328088179 0.0442781113 0.0561874732 0.171959996
      0.125341743 0.137888655 0.181073502 0.239773199 0.0693608746
      0.0411515459 0.101848885 0.0692270845 0.114392109 0.0742792562
      0.0507641956 0.271789283 0.271789283 0.271789283 0.145427436
      0.0434858501 0.0681846961 0.271789283 0.151214749 0.201602489
      0.271789283 0.271789283 0.216000244 0.141342059 0.0303590633
      0.0207163971 0.236149326 0.112216808 0.103179723 0.271789283
      0.297224462 0.0413450636 0.0424382053 0.108939998 0.129933655
      0.0671799555 0.0662543997 0.0537841655 0.261408031 0.207912326
      0.0445870459 0.112252071 0.0617145039 0.101984538 0.0268256944
      0.0542539321 0.0703777149 0.245202765 0.297224462 0.119025767
      0.108389109 0.0315366164 0.0110064959 0.059435036 0.0793452263
      0.122294076 0.297224462 0.297224462 0.102028713 0.297224462
      0.189030334 0.0256081186 0.0266462676 0.161719605 0.297224462
      0.297224462 0.118864812 0.0527190976 0.241612583 0.0573947094
      0.0502774306 0.0182524994 0.0396752954 0.0596537106 0.210126355
      0.154982597 0.195892543 0.288356543 0.0928388536 0.0758437216
      0.0340177193 0.0320276991 0.102144353 0.184841365 0.23544769
      0.0881345868 0.288356543 0.22167328 0.0151756322 0.00789802894
      0.148580253 0.192014873 0.288356543 0.242452592 0.20513469
      0.288356543 0.156447396 0.0292033236 0.0333886854 0.0777501687
      0.148878932 0.288356543 0.164372951 0.315970629 0.315970629
      0.125253499 0.0905970633 0.0425621271 0.016682351 0.100441061
      0.0892754868 0.133762985 0.315970629 0.315970629 0.103633523
      0.0429977514 0.0162694249 0.00393348793 0.0365180224 0.0478026792
      0.23565568 0.315970629 0.315970629 0.0958025306 0.0468773805
      0.0670287237 0.0118550863 0.115246393 0.201614901 0.155880526
      0.315970629 0.174227193 0.0726348236 0.0177608151 0.0176722836
      0.00231930125 0.0250355564 0.0766480863 0.306870401 0.370642871
      0.370642871 0.0831622034 0.0468324423 0.019974241 0.00492804591
      0.019964477 0.092599839 0.252648056 0.370642871 0.370642871
      0.0475069657 0.0206220355 0.0145652043 0.0199469496 0.0140843745
      0.110423103 0.202704921 0.370642871 0.199982807 0.0219393354
      0.0161988549 0.00934656151 0.00882111397 0.00556292711
      0.0813952684 0.0776799247 0.101874173 0.0895611495 0.00693269586
      0.014784134 0.0165256076 0.0165660959 0.00946238358 0.0569326878
      0.15842703 0.155230224 0.249391198 0.0274431948 0.417630702
      0.0388546064 0.0245736837 0.00839019567 0.0801698864 0.0407093316
      0.0439869799 0.048421815 0.0127263395 0.477115721 0.0757181719
      0.0199185461 0.000461409276 0.0216131452 0.0322989821 0.0246403832
      0.02424041 0.0132976398 0.477115721 0.0162878875 0.00841563661
      0.0046151909 0.030706685 0.00823792256 0.00735457474 0.00588636799
      0.0105845546 0.477115721 0.0185635109 0.000619379571
      0.000106479063 0.0109728863 0.00662074238 0.0100304205
      0.00617745053 0.00627418328 0.702605903 0.0694532841 0.0170383267
      0. 0.00443403469 0. 0. 0. 0. 0. 0. 0. 0. 0. 0.00220627431
      0.00221293513 6.75297633e-05 0.00721069193 0.702605903
      0.0154839894 0.000265553477 0. 0.00436822651 0. 0. 0. 0. 0. 0. 0.
      0. 0. 0. 0. 0. 0. 0. 0. 0. 0. 0. 0. 0. 0. 0. 0. 0. 0. 0. 0. 0. 0.
      0. 0. 0. 0. 0. 0. 0. 0. 0. 0. 0. 0. 0. 0. 0. 0. 0. 0. 0. 0. 0. 0.
      0. 0. 0. 0. 0. 0. 0. 0. 0. 0. 0. 0. 0. 0. 0. 0. 0. 0. 0. 0. 0. 0.
      0. 0. 0. 0. 0. 0. 0. 0.</_>
    <_>
      0. 0. 0. 0. 0. 0. 0. 0. 0. 0. 0. 0. 0. 0. 0. 0. 0. 0. 0. 0. 0. 0.
      0. 0. 0. 0. 0. 0. 0. 0. 0. 0. 0. 0. 0. 0. 0. 0. 0. 0. 0. 0. 0. 0.
      0. 0. 0. 0. 0. 0. 0. 0. 0. 0. 0. 0. 0. 0. 0. 0. 0. 0. 0. 0. 0. 0.
      0. 0. 0. 0. 0. 0. 0. 0. 0. 0. 0. 0. 0. 0. 0. 0. 0. 0. 0. 0. 0. 0.
      0. 0. 0. 0. 0. 0. 0. 0. 0. 0. 0. 0. 0. 0. 0. 0. 0. 0. 0. 0. 0. 0.
      0. 0. 0.0752529725 0. 0. 0. 0. 0.00121751404 0.000334612589
      0.00122913858 0.0130821886 0.699548185 0.0104228174 0.00309673534
      0.00217707595 0.00214761263 0. 0. 0. 0. 0.0868320689 0. 0. 0. 0.
      0.00482903374 0.0013513189 0.00142522575 0.0210726429 0.699548185
      0.0158581287 0.00207784818 0.00308325165 0.00634831656
      0.00193759042 0.00108544377 0.00180276181 0.0055039064 0.367919147
      0.00521231117 0.00441575237 0.00390320853 0.00322644645
      0.00450840686 0.149136916 0.326535285 0.0794964582 0.0527850948
      0.00285855634 0.00645370688 0.0055297832 0.0049711708
      0.00716405082 0.0904586092 0.0581972152 0.0355798118 0.367919147
      0.037471693 0.00600239262 0.00672617787 0.00691462401 0.0179491602
      0.367919147 0.367919147 0.367919147 0.367919147 0.174899712
      0.0174640696 0.0162136573 0.0052607879 0.0460825376 0.254773229
      0.331086576 0.0510450415 0.013389688 0.000886326539 0.00231377711
      0.0107678268 0.0382730551 0.205956504 0.331086576 0.331086576
      0.161370844 0.00973823015 0.00700342283 0.0198505111 0.0768623576
      0.184170544 0.0192143153 0.331086576 0.331086576 0.201397806
      0.11412596 0.0376737118 0.00362274912 0.00737027125 0.0168497358
      0.061101336 0.299337059 0.331086576 0.076429747 0.0193450078
      0.0115124881 0.0124346083 0.0159311835 0.0541818216 0.269107372
      0.269107372 0.269107372 0.269107372 0.037025664 0.011316143
      0.0310914777 0.210211292 0.269107372 0.251670361 0.269107372
      0.206388414 0.138173148 0.0911086127 0.0245349146 0.036157798
      0.1523377 0.269107372 0.0856552869 0.149970412 0.175508216
      0.0703133568 0.0527788736 0.0260039717 0.0178328808 0.0224119592
      0.0921351314 0.239108101 0.0435657389 0.0333983675 0.112053305
      0.269107372 0.0435484387 0.0272863563 0.0210481863 0.242262587
      0.263893723 0.164027542 0.0722950473 0.040656358 0.134848997
      0.0281819757 0.0480760001 0.0945488214 0.269189298 0.267774224
      0.0914033949 0.0492875837 0.0525802672 0.063134782 0.0469711497
      0.181254372 0.228921279 0.301661938 0.301661938 0.0233875494
      0.0248960871 0.204828426 0.301661938 0.0848398209 0.0482642576
      0.0227781571 0.301661938 0.255761534 0.0262718443 0.02137479
      0.0895156488 0.301661938 0.0407653153 0.0283878446 0.0184091274
      0.16917178 0.313010246 0.0627900884 0.0249831844 0.017652493
      0.0269290823 0.0739639252 0.313010246 0.241032392 0.313010246
      0.313010246 0.0778735802 0.02295422 0.0185054932 0.0330074094
      0.104820363 0.313010246 0.313010246 0.280821025 0.132339761
      0.0121189356 0.0106659336 0.0231232699 0.0692700893 0.013718483
      0.0652743801 0.0329828747 0.0873399377 0.184197456 0.0305730384
      0.0168384742 0.0429317281 0.0942516699 0.0409502871 0.313010246
      0.215396598 0.117405839 0.23587139 0.0694719255 0.0317299142
      0.0404970087 0.015517965 0.0516892299 0.337869972 0.270772099
      0.0931267291 0.138184622 0.0348021612 0.0124194408 0.0375372581
      0.0109429425 0.0221113134 0.337869972 0.265997052 0.0823784173
      0.0682881474 0.0335244089 0.0264242515 0.0435565263 0.0670658424
      0.0948041677 0.337869972 0.337869972 0.059379898 0.0211008955
      0.0181436837 0.0350681506 0.0707604364 0.0723296702 0.152411446
      0.337869972 0.337869972 0.0528317317 0.0496672988 0.00603754912
      0.00351959467 0.0169232506 0.0235535577 0.0258051623 0.328319371
      0.328319371 0.104173742 0.00241550012 0.00175807578 0.0036049867
      0.0519721396 0.328319371 0.026157992 0.201906368 0.131239071
      0.0156352185 0.017833095 0.00981923938 0.0325910039 0.06969551
      0.0919960663 0.154159158 0.328319371 0.328319371 0.0631429926
      0.0185596496 0.0222624037 0.0337429158 0.0609338507 0.306078285
      0.173674494 0.328319371 0.31777367 0.0193226561 0.00015679952
      0.00328866602 0.00943960994 0.140782729 0.545763791 0.0227434989
      0.0855598152 0.046278093 0.00173558854 0. 0. 0. 0. 0.0667233467 0.
      0. 0. 0. 0.0443989411 0.0536468923 0.0682343617 0.149147004
      0.545763791 0.202311352 0.480094105 0.240580112 0.0258050263 0. 0.
      0. 0. 0.0525808707 0. 0. 0. 0. 0. 0. 0. 0. 0. 0. 0. 0. 0. 0. 0. 0.
      0. 0. 0. 0. 0. 0. 0. 0. 0. 0. 0. 0. 0. 0. 0. 0. 0. 0. 0. 0. 0. 0.
      0. 0. 0. 0. 0. 0. 0. 0. 0. 0. 0. 0. 0. 0. 0. 0. 0. 0. 0. 0. 0. 0.
      0. 0. 0. 0. 0. 0. 0. 0. 0. 0. 0. 0. 0. 0. 0. 0. 0. 0. 0. 0. 0. 0.
      0. 0. 0. 0. 0. 0. 0. 0. 0. 0. 0. 0. 0. 0. 0. 0. 0. 0. 0. 0. 0. 0.
      0. 0. 0. 0. 0. 0. 0. 0. 0. 0. 0. 0. 0. 0. 0. 0. 0. 0. 0. 0. 0. 0.
      0. 0. 0. 0. 0. 0. 0. 0. 0. 0. 0. 0. 0. 0. 0. 0. 0. 0. 0. 0. 0. 0.
      0. 0. 0. 0. 0. 0. 0. 0. 0. 0. 0. 0. 0. 0. 0. 0. 0. 0. 0. 0. 0. 0.
      0. 0. 0. 0. 0. 0. 0. 0. 0. 0. 0. 0. 0. 0. 0. 0. 0. 0. 0. 0. 0. 0.
      0. 0. 0. 0. 0. 0. 0. 0. 0. 0. 0. 0. 0. 0. 0. 0. 0. 0. 0. 0. 0. 0.
      0. 0. 0. 0. 0. 0. 0. 0. 0. 0. 0.0615316369 0. 0. 0. 0.
      0.0141629977 0.02148523 0.00589303439 0.0152810216 0.648196578
      0.0254176185 0.00613073586 0.00112091983 0.00254910602 0. 0. 0. 0.
      0.0710672662 0. 0. 0. 0. 0.0982112661 0.193353459 0.13689898
      0.112508669 0.648196578 0.239904851 0.0822641402 0.000192902473
      0.000340423489 0.0146046244 0.130357787 0.0587904751 0.0616384745
      0.266076624 0.0570048466 0.00851403549 0.00147485838 0.00144418678
      0.0291268118 0.266076624 0.266076624 0.232843816 0.266076624
      0.201038122 0.016740106 0.00392500544 0.00167584035 0.0711423308
      0.245715171 0.152008817 0.127875045 0.266076624 0.236217052
      0.0594590008 0.000128179381 0.000918509497 0.0825739205
      0.266076624 0.266076624 0.249783188 0.266076624 0.266076624
      0.0554835722 0.00165032956 0.00897508115 0.0469368137 0.326378942
      0.326378942 0.326378942 0.326378942 0.203527361 0.0140967248
      0.00601565465 0.00638079131 0.0254433248 0.155811429 0.315294176
      0.0781966448 0.0448093265 0.0306063797 0.0253615677 0.0242866371
      0.0340675972 0.102274053 0.311938673 0.246915638 0.294286758
      0.246165186 0.185718566 0.0209313445 0.0161697678 0.0617889054
      0.0926647261 0.0436773188 0.048623614 0.0752205476 0.0649439096
      0.0576363355 0.0345581435 0.0261997115 0.0898604468 0.0428985767
      0.0461511388 0.0560635701 0.0244311951 0.107465416 0.0475880131
      0.0331406333 0.0314360484 0.080364801 0.376042992 0.0218881965
      0.125547543 0.271975935 0.376042992 0.115039103 0.109805435
      0.0497898199 0.376042992 0.0502226688 0.0159864575 0.0133733032
      0.0286328122 0.0733532906 0.0290748365 0.0320046768 0.0190988611
      0.0515215211 0.321739316 0.00906619895 0.0934922323 0.0697543547
      0.376042992 0.0589629449 0.0744620562 0.0296294577 0.376042992
      0.274089992 0.00409115432 0.0481425896 0.150387123 0.274089992
      0.105244085 0.0992051214 0.0317163616 0.274089992 0.187112674
      0.00727745518 0.0177083258 0.0806131661 0.264452815 0.0794075131
      0.0633269399 0.0262515433 0.15999496 0.191278815 0.0411860235
      0.0658336207 0.0524346605 0.274089992 0.11505755 0.0731673464
      0.0192657262 0.234893307 0.14552629 0.186457708 0.227876678
      0.274089992 0.274089992 0.274089992 0.114794508 0.049583964
      0.181881323 0.0908758938 0.0131147858 0.0156219974 0.0564749315
      0.125942051 0.0729238465 0.0421415865 0.0418021008 0.152338162
      0.142785236 0.0948578343 0.087849915 0.0691954792 0.252203494
      0.194687352 0.149923608 0.163201898 0.266110986 0.116673373
      0.137182146 0.220705107 0.266110986 0.266110986 0.266110986
      0.135281339 0.0861491337 0.235204011 0.154903471 0.0799226984
      0.101641141 0.0994418412 0.266110986 0.266110986 0.0814412385
      0.172996491 0.266110986 0.0589768104 0.0432312228 0.0723762065
      0.0760390013 0.172544643 0.164003506 0.282672286 0.246195391
      0.139044642 0.00442948658 0.00399147673 0.073271744 0.226054072
      0.238198221 0.221372709 0.282672286 0.282672286 0.0330915414
      0.0683239847 0.0349287279 0.0671029463 0.0662144497 0.192741469
      0.110413931 0.0534178056 0.116247237 0.171353221 0.0184877012
      0.00458550779 0.0449353606 0.282672286 0.282672286 0.104863621
      0.275310606 0.282672286 0.0490780994 0.00588653935 0.010658266
      0.0598262399 0.190401971 0.207035765 0.137725607 0.30021137
      0.30021137 0.028526023 0.0148240337 0.0208351631 0.0379420295
      0.0339972265 0.200542316 0.186179057 0.30021137 0.168420702
      0.0156130083 0.016282009 0.00950069912 0.0531175919 0.30021137
      0.30021137 0.0978005305 0.285219491 0.30021137 0.0572724715
      0.00668214681 0.0154850809 0.0372712947 0.0925679728 0.30021137
      0.110348321 0.179533377 0.0666429326 0.016812209 0.0302151069
      0.0316426121 0.0426782891 0.043804545 0.492889017 0.264369041
      0.492889017 0.1720725 0.0280335937 0. 0. 0. 0. 0.0309100579 0. 0.
      0. 0. 0.0023541362 0.0147550153 0.0311970674 0.0670562759
      0.492889017 0.206278399 0.320351303 0.049023658 0.00693532731 0.
      0. 0. 0. 0.0777331889 0. 0. 0. 0. 0. 0. 0. 0. 0. 0. 0. 0. 0. 0. 0.
      0. 0. 0. 0. 0. 0. 0. 0. 0. 0. 0. 0. 0. 0. 0. 0. 0. 0. 0. 0. 0. 0.
      0. 0. 0. 0. 0. 0. 0. 0. 0. 0. 0. 0. 0. 0. 0. 0. 0. 0. 0. 0. 0. 0.
